{"learner":{"attributes":{"best_iteration":"489","best_score":"9.625582353300725","scikit_learn":"{\"_estimator_type\": \"regressor\"}"},"feature_names":[],"feature_types":[],"gradient_booster":{"model":{"cats":{"enc":[],"feature_segments":[],"sorted_idx":[]},"gbtree_model_param":{"num_parallel_tree":"1","num_trees":"540"},"iteration_indptr":[0,1,2,3,4,5,6,7,8,9,10,11,12,13,14,15,16,17,18,19,20,21,22,23,24,25,26,27,28,29,30,31,32,33,34,35,36,37,38,39,40,41,42,43,44,45,46,47,48,49,50,51,52,53,54,55,56,57,58,59,60,61,62,63,64,65,66,67,68,69,70,71,72,73,74,75,76,77,78,79,80,81,82,83,84,85,86,87,88,89,90,91,92,93,94,95,96,97,98,99,100,101,102,103,104,105,106,107,108,109,110,111,112,113,114,115,116,117,118,119,120,121,122,123,124,125,126,127,128,129,130,131,132,133,134,135,136,137,138,139,140,141,142,143,144,145,146,147,148,149,150,151,152,153,154,155,156,157,158,159,160,161,162,163,164,165,166,167,168,169,170,171,172,173,174,175,176,177,178,179,180,181,182,183,184,185,186,187,188,189,190,191,192,193,194,195,196,197,198,199,200,201,202,203,204,205,206,207,208,209,210,211,212,213,214,215,216,217,218,219,220,221,222,223,224,225,226,227,228,229,230,231,232,233,234,235,236,237,238,239,240,241,242,243,244,245,246,247,248,249,250,251,252,253,254,255,256,257,258,259,260,261,262,263,264,265,266,267,268,269,270,271,272,273,274,275,276,277,278,279,280,281,282,283,284,285,286,287,288,289,290,291,292,293,294,295,296,297,298,299,300,301,302,303,304,305,306,307,308,309,310,311,312,313,314,315,316,317,318,319,320,321,322,323,324,325,326,327,328,329,330,331,332,333,334,335,336,337,338,339,340,341,342,343,344,345,346,347,348,349,350,351,352,353,354,355,356,357,358,359,360,361,362,363,364,365,366,367,368,369,370,371,372,373,374,375,376,377,378,379,380,381,382,383,384,385,386,387,388,389,390,391,392,393,394,395,396,397,398,399,400,401,402,403,404,405,406,407,408,409,410,411,412,413,414,415,416,417,418,419,420,421,422,423,424,425,426,427,428,429,430,431,432,433,434,435,436,437,438,439,440,441,442,443,444,445,446,447,448,449,450,451,452,453,454,455,456,457,458,459,460,461,462,463,464,465,466,467,468,469,470,471,472,473,474,475,476,477,478,479,480,481,482,483,484,485,486,487,488,489,490,491,492,493,494,495,496,497,498,499,500,501,502,503,504,505,506,507,508,509,510,511,512,513,514,515,516,517,518,519,520,521,522,523,524,525,526,527,528,529,530,531,532,533,534,535,536,537,538,539,540],"tree_info":[0,0,0,0,0,0,0,0,0,0,0,0,0,0,0,0,0,0,0,0,0,0,0,0,0,0,0,0,0,0,0,0,0,0,0,0,0,0,0,0,0,0,0,0,0,0,0,0,0,0,0,0,0,0,0,0,0,0,0,0,0,0,0,0,0,0,0,0,0,0,0,0,0,0,0,0,0,0,0,0,0,0,0,0,0,0,0,0,0,0,0,0,0,0,0,0,0,0,0,0,0,0,0,0,0,0,0,0,0,0,0,0,0,0,0,0,0,0,0,0,0,0,0,0,0,0,0,0,0,0,0,0,0,0,0,0,0,0,0,0,0,0,0,0,0,0,0,0,0,0,0,0,0,0,0,0,0,0,0,0,0,0,0,0,0,0,0,0,0,0,0,0,0,0,0,0,0,0,0,0,0,0,0,0,0,0,0,0,0,0,0,0,0,0,0,0,0,0,0,0,0,0,0,0,0,0,0,0,0,0,0,0,0,0,0,0,0,0,0,0,0,0,0,0,0,0,0,0,0,0,0,0,0,0,0,0,0,0,0,0,0,0,0,0,0,0,0,0,0,0,0,0,0,0,0,0,0,0,0,0,0,0,0,0,0,0,0,0,0,0,0,0,0,0,0,0,0,0,0,0,0,0,0,0,0,0,0,0,0,0,0,0,0,0,0,0,0,0,0,0,0,0,0,0,0,0,0,0,0,0,0,0,0,0,0,0,0,0,0,0,0,0,0,0,0,0,0,0,0,0,0,0,0,0,0,0,0,0,0,0,0,0,0,0,0,0,0,0,0,0,0,0,0,0,0,0,0,0,0,0,0,0,0,0,0,0,0,0,0,0,0,0,0,0,0,0,0,0,0,0,0,0,0,0,0,0,0,0,0,0,0,0,0,0,0,0,0,0,0,0,0,0,0,0,0,0,0,0,0,0,0,0,0,0,0,0,0,0,0,0,0,0,0,0,0,0,0,0,0,0,0,0,0,0,0,0,0,0,0,0,0,0,0,0,0,0,0,0,0,0,0,0,0,0,0,0,0,0,0,0,0,0,0,0,0,0,0,0,0,0,0,0,0,0,0,0,0,0,0,0,0,0,0,0,0,0,0,0,0,0,0,0,0,0,0,0,0,0,0,0,0,0,0,0,0,0,0,0,0,0,0,0,0,0,0,0,0,0,0,0,0,0,0,0,0,0,0,0,0,0,0,0,0,0,0,0,0,0,0,0],"trees":[{"base_weights":[3.3307147E-1,-4.121587E1,5.449984E1,-6.851684E1,-1.606979E1,2.8249125E1,7.014003E1,-7.5432655E1,-5.8083164E1,-2.3387697E1,-8.074496E0,1.7433899E1,3.863096E1,6.1874043E1,1.0063098E2,-7.9973835E-1,-7.0087713E-1,-6.018699E-1,-4.8299974E-1,-2.9646076E1,-1.8623657E1,-1.0703068E1,2.3070812E0,3.143164E0,2.0954521E1,2.5581795E1,4.361171E1,5.61363E-1,7.08031E-1,7.8704184E-1,1.0787227E0,-3.284305E-1,-2.6390952E-1,-2.258629E-1,-1.7223531E-1,-1.202004E-1,-3.8711984E-2,-2.9907541E-2,7.7080466E-2,-8.282904E-2,5.4793514E-2,1.3051674E-1,2.2918493E-1,1.1495566E-1,2.811165E-1,3.2197317E-1,4.5612636E-1],"categories":[],"categories_nodes":[],"categories_segments":[],"categories_sizes":[],"default_left":[0,0,0,0,0,0,0,0,0,0,0,0,0,0,0,0,0,0,0,0,0,0,0,0,0,0,0,0,0,0,0,0,0,0,0,0,0,0,0,0,0,0,0,0,0,0,0],"id":0,"left_children":[1,3,5,7,9,11,13,15,17,19,21,23,25,27,29,-1,-1,-1,-1,31,33,35,37,39,41,43,45,-1,-1,-1,-1,-1,-1,-1,-1,-1,-1,-1,-1,-1,-1,-1,-1,-1,-1,-1,-1],"loss_changes":[4.489887E6,7.739715E5,3.5356875E5,3.465575E4,3.4272844E4,3.581814E4,1.30378E5,2.210625E3,1.621E3,8.601125E3,7.7473984E3,8.034414E3,9.608453E3,1.8004125E4,9.61075E3,0E0,0E0,0E0,0E0,4.965E2,5.930117E2,1.9868789E3,1.6826313E3,9.2626843E2,1.703082E3,1.387373E3,1.2264375E3,0E0,0E0,0E0,0E0,0E0,0E0,0E0,0E0,0E0,0E0,0E0,0E0,0E0,0E0,0E0,0E0,0E0,0E0,0E0,0E0],"parents":[2147483647,0,0,1,1,2,2,3,3,4,4,5,5,6,6,7,7,8,8,9,9,10,10,11,11,12,12,13,13,14,14,19,19,20,20,21,21,22,22,23,23,24,24,25,25,26,26],"right_children":[2,4,6,8,10,12,14,16,18,20,22,24,26,28,30,-1,-1,-1,-1,32,34,36,38,40,42,44,46,-1,-1,-1,-1,-1,-1,-1,-1,-1,-1,-1,-1,-1,-1,-1,-1,-1,-1,-1,-1],"split_conditions":[4.257287E-1,1.7704867E-1,6.064014E-1,9.285816E-2,3.229457E-1,5.1276165E-1,7.594669E-1,5.3359874E-2,1.5989769E-1,2.8470865E-1,3.7243998E-1,4.7195667E-1,5.108722E-1,7.004605E-1,7.6957446E-1,-7.9973835E-1,-7.0087713E-1,-6.018699E-1,-4.8299974E-1,2.6131406E-1,2.9623938E-1,5.6171656E-1,3.8251472E-1,2.1326116E-1,4.7447768E-1,5.0272346E-1,5.3847224E-1,5.61363E-1,7.08031E-1,7.8704184E-1,1.0787227E0,-3.284305E-1,-2.6390952E-1,-2.258629E-1,-1.7223531E-1,-1.202004E-1,-3.8711984E-2,-2.9907541E-2,7.7080466E-2,-8.282904E-2,5.4793514E-2,1.3051674E-1,2.2918493E-1,1.1495566E-1,2.811165E-1,3.2197317E-1,4.5612636E-1],"split_indices":[1,14,3,1,1,3,2,0,17,20,2,27,17,15,13,0,0,0,0,14,30,11,30,23,17,10,15,0,0,0,0,0,0,0,0,0,0,0,0,0,0,0,0,0,0,0,0],"split_type":[0,0,0,0,0,0,0,0,0,0,0,0,0,0,0,0,0,0,0,0,0,0,0,0,0,0,0,0,0,0,0,0,0,0,0,0,0,0,0,0,0,0,0,0,0,0,0],"sum_hessian":[1.993E3,1.128E3,8.65E2,5.4E2,5.88E2,3.24E2,5.41E2,3.21E2,2.19E2,3.06E2,2.82E2,1.6E2,1.64E2,4.28E2,1.13E2,1.66E2,1.55E2,1.76E2,4.3E1,1.3E2,1.76E2,2.25E2,5.7E1,3.2E1,1.28E2,4.7E1,1.17E2,2.65E2,1.63E2,3.1E1,8.2E1,6.1E1,6.9E1,4.2E1,1.34E2,1.88E2,3.7E1,2.9E1,2.8E1,5E0,2.7E1,2.7E1,1.01E2,8E0,3.9E1,2E1,9.7E1],"tree_param":{"num_deleted":"0","num_feature":"31","num_nodes":"47","size_leaf_vector":"1"}},{"base_weights":[9.2996836E-1,-3.9313183E1,5.586244E1,-6.7893036E1,-1.4693095E1,3.815351E1,7.766164E1,-7.437714E1,-5.7547306E1,-2.2262058E1,-5.1715813E0,2.1965055E1,5.0242706E1,6.919201E1,1.0913287E0,-7.912225E-1,-6.904853E-1,-5.944071E-1,-4.6436092E-1,-2.93152E1,-1.7893822E1,-9.771036E0,3.7887623E0,1.1495365E1,2.6772099E1,4.4453674E1,5.3302366E-1,6.351787E-1,7.735728E1,-3.2820433E-1,-2.65576E-1,-1.9629434E-1,-1.5360019E-1,-7.8989714E-2,-1.2866385E-1,-4.17302E-2,6.733945E-2,3.6558226E-2,1.8535659E-1,2.2109279E-1,3.352959E-1,2.6747823E-1,4.5730332E-1,5.152376E-1,7.8767675E-1],"categories":[],"categories_nodes":[],"categories_segments":[],"categories_sizes":[],"default_left":[0,0,0,0,0,0,0,0,0,0,0,0,0,0,0,0,0,0,0,0,0,0,0,0,0,0,0,0,0,0,0,0,0,0,0,0,0,0,0,0,0,0,0,0,0],"id":1,"left_children":[1,3,5,7,9,11,13,15,17,19,21,23,25,27,-1,-1,-1,-1,-1,29,31,33,35,37,39,41,-1,-1,43,-1,-1,-1,-1,-1,-1,-1,-1,-1,-1,-1,-1,-1,-1,-1,-1],"loss_changes":[4.3969795E6,8.067795E5,3.21697E5,3.134075E4,4.4422875E4,9.0095125E4,9.26715E4,2.70375E3,1.63675E3,1.0074E4,1.1370511E4,9.808219E3,2.342E3,8.93925E3,0E0,0E0,0E0,0E0,0E0,3.8495312E2,6.44E2,9.530039E2,2.2322974E3,3.5197617E3,3.575414E3,9.920469E2,0E0,0E0,2.41E2,0E0,0E0,0E0,0E0,0E0,0E0,0E0,0E0,0E0,0E0,0E0,0E0,0E0,0E0,0E0,0E0],"parents":[2147483647,0,0,1,1,2,2,3,3,4,4,5,5,6,6,7,7,8,8,9,9,10,10,11,11,12,12,13,13,19,19,20,20,21,21,22,22,23,23,24,24,25,25,28,28],"right_children":[2,4,6,8,10,12,14,16,18,20,22,24,26,28,-1,-1,-1,-1,-1,30,32,34,36,38,40,42,-1,-1,44,-1,-1,-1,-1,-1,-1,-1,-1,-1,-1,-1,-1,-1,-1,-1,-1],"split_conditions":[4.3820196E-1,1.8559334E-1,6.55433E-1,9.285816E-2,3.2878622E-1,5.680248E-1,8.314268E-1,5.3359874E-2,1.670032E-1,2.8470865E-1,3.7243998E-1,4.7447768E-1,6.0846376E-1,7.383124E-1,1.0913287E0,-7.912225E-1,-6.904853E-1,-5.944071E-1,-4.6436092E-1,2.6275977E-1,3.2258868E-1,4.3170857E-1,3.7971604E-1,6.0376173E-1,5.0862354E-1,4.501211E-1,5.3302366E-1,6.351787E-1,2.468128E-1,-3.2820433E-1,-2.65576E-1,-1.9629434E-1,-1.5360019E-1,-7.8989714E-2,-1.2866385E-1,-4.17302E-2,6.733945E-2,3.6558226E-2,1.8535659E-1,2.2109279E-1,3.352959E-1,2.6747823E-1,4.5730332E-1,5.152376E-1,7.8767675E-1],"split_indices":[0,0,3,1,1,1,16,0,17,20,2,17,3,30,0,0,0,0,0,30,17,9,30,27,3,17,0,0,11,0,0,0,0,0,0,0,0,0,0,0,0,0,0,0,0],"split_type":[0,0,0,0,0,0,0,0,0,0,0,0,0,0,0,0,0,0,0,0,0,0,0,0,0,0,0,0,0,0,0,0,0,0,0,0,0,0,0,0,0,0,0,0,0],"sum_hessian":[1.987E3,1.147E3,8.4E2,5.3E2,6.17E2,4.65E2,3.75E2,3.22E2,2.08E2,3.43E2,2.74E2,2E2,2.65E2,2.98E2,7.7E1,1.63E2,1.59E2,1.74E2,3.4E1,1.29E2,2.14E2,1.81E2,9.3E1,6.4E1,1.36E2,9.7E1,1.68E2,1.81E2,1.17E2,5.2E1,7.7E1,1.23E2,9.1E1,1.15E2,6.6E1,2.5E1,6.8E1,3.1E1,3.3E1,8.3E1,5.3E1,8E0,8.9E1,8E0,1.09E2],"tree_param":{"num_deleted":"0","num_feature":"31","num_nodes":"45","size_leaf_vector":"1"}},{"base_weights":[-1.2454467E-1,-4.0852074E1,5.2950607E1,-6.6890274E1,-1.6201565E1,2.7249994E1,6.941983E1,-7.3524216E1,-5.701191E1,-2.7740986E1,-1.1322251E1,1.685955E1,4.0194336E1,6.0713642E1,9.630636E1,-7.833785E-1,-6.8313706E-1,-5.900144E-1,-4.766762E-1,-3.2364932E-1,-2.4463846E1,-1.3100302E1,9.3151885E-1,3.7002492E0,2.0302202E1,2.8393476E1,4.4602287E-1,5.5406374E-1,6.879886E-1,7.9317E-1,1.0586704E0,-2.5055918E-1,-1.7234169E-1,-1.6936247E-1,-1.023434E-1,-3.5166457E-2,5.8762025E-2,6.6286646E-2,-1.1066656E-2,1.2394647E-1,2.2921224E-1,1.0657532E-1,2.9939276E-1],"categories":[],"categories_nodes":[],"categories_segments":[],"categories_sizes":[],"default_left":[0,0,0,0,0,0,0,0,0,0,0,0,0,0,0,0,0,0,0,0,0,0,0,0,0,0,0,0,0,0,0,0,0,0,0,0,0,0,0,0,0,0,0],"id":2,"left_children":[1,3,5,7,9,11,13,15,17,19,21,23,25,27,29,-1,-1,-1,-1,-1,31,33,35,37,39,41,-1,-1,-1,-1,-1,-1,-1,-1,-1,-1,-1,-1,-1,-1,-1,-1,-1],"loss_changes":[4.2367765E6,7.1073325E5,3.5831025E5,3.113025E4,3.1835766E4,4.4244484E4,1.1540575E5,2.6495E3,1.2960625E3,1.7691328E3,8.792695E3,8.396523E3,6.432172E3,1.3094875E4,1.190675E4,0E0,0E0,0E0,0E0,0E0,9.0703125E0,3.6964453E3,1.1643925E3,5.7040155E2,2.7809844E3,8.598203E2,0E0,0E0,0E0,0E0,0E0,0E0,0E0,0E0,0E0,0E0,0E0,0E0,0E0,0E0,0E0,0E0,0E0],"parents":[2147483647,0,0,1,1,2,2,3,3,4,4,5,5,6,6,7,7,8,8,9,9,10,10,11,11,12,12,13,13,14,14,20,20,21,21,22,22,23,23,24,24,25,25],"right_children":[2,4,6,8,10,12,14,16,18,20,22,24,26,28,30,-1,-1,-1,-1,-1,32,34,36,38,40,42,-1,-1,-1,-1,-1,-1,-1,-1,-1,-1,-1,-1,-1,-1,-1,-1,-1],"split_conditions":[4.0178064E-1,1.7704867E-1,6.117912E-1,9.285816E-2,3.0168954E-1,5.2384746E-1,7.5958616E-1,5.3359874E-2,1.5989769E-1,2.6131406E-1,3.7243998E-1,4.7195667E-1,5.4633856E-1,6.993798E-1,7.756965E-1,-7.833785E-1,-6.8313706E-1,-5.900144E-1,-4.766762E-1,-3.2364932E-1,3.1837836E-1,3.258301E-1,3.8944754E-1,4.4856137E-1,4.5869258E-1,2.7935454E-1,4.4602287E-1,5.5406374E-1,6.879886E-1,7.9317E-1,1.0586704E0,-2.5055918E-1,-1.7234169E-1,-1.6936247E-1,-1.023434E-1,-3.5166457E-2,5.8762025E-2,6.6286646E-2,-1.1066656E-2,1.2394647E-1,2.2921224E-1,1.0657532E-1,2.9939276E-1],"split_indices":[3,14,2,1,29,0,20,0,17,14,2,27,17,15,13,0,0,0,0,0,17,1,21,1,1,28,0,0,0,0,0,0,0,0,0,0,0,0,0,0,0,0,0],"split_type":[0,0,0,0,0,0,0,0,0,0,0,0,0,0,0,0,0,0,0,0,0,0,0,0,0,0,0,0,0,0,0,0,0,0,0,0,0,0,0,0,0,0,0],"sum_hessian":[1.958E3,1.108E3,8.5E2,5.38E2,5.7E2,3.33E2,5.17E2,3.18E2,2.2E2,1.68E2,4.02E2,1.86E2,1.47E2,3.93E2,1.24E2,1.58E2,1.6E2,1.77E2,4.3E1,6.6E1,1.02E2,3.51E2,5.1E1,3.9E1,1.47E2,4.2E1,1.05E2,2.42E2,1.51E2,4.8E1,7.6E1,9.2E1,1E1,1.48E2,2.03E2,2.7E1,2.4E1,2.4E1,1.5E1,3.8E1,1.09E2,4E0,3.8E1],"tree_param":{"num_deleted":"0","num_feature":"31","num_nodes":"43","size_leaf_vector":"1"}},{"base_weights":[-1.0543146E-1,-4.120045E1,5.1194813E1,-6.6387726E1,-1.6561451E1,2.5222353E1,6.893351E1,-7.2955986E1,-5.600725E1,-2.7328222E1,-1.1893914E1,1.4442558E1,3.770269E1,6.1451862E1,1.0111112E2,-7.745664E-1,-6.73313E-1,-5.792861E-1,-4.596096E-1,-3.2249972E-1,-2.4082972E1,-1.5071821E1,-5.994665E0,4.2800965E0,1.8936209E1,2.6986195E1,4.32053E1,5.5353E1,7.128952E-1,8.093489E-1,1.0831363E0,-2.4682271E-1,-1.660886E-1,-1.6865331E-1,-1.2544693E-1,-9.279691E-2,1.7079424E-2,-1.240926E-1,5.9617814E-2,1.0894428E-1,2.1485004E-1,1.6035736E-1,2.9117203E-1,2.2061777E-1,4.379504E-1,5.306198E-1,6.112376E-1],"categories":[],"categories_nodes":[],"categories_segments":[],"categories_sizes":[],"default_left":[0,0,0,0,0,0,0,0,0,0,0,0,0,0,0,0,0,0,0,0,0,0,0,0,0,0,0,0,0,0,0,0,0,0,0,0,0,0,0,0,0,0,0,0,0,0,0],"id":3,"left_children":[1,3,5,7,9,11,13,15,17,19,21,23,25,27,29,-1,-1,-1,-1,-1,31,33,35,37,39,41,43,45,-1,-1,-1,-1,-1,-1,-1,-1,-1,-1,-1,-1,-1,-1,-1,-1,-1,-1,-1],"loss_changes":[4.2564255E6,6.94581E5,4.11986E5,3.368675E4,2.8219406E4,4.869547E4,1.221015E5,3.2905E3,1.5648125E3,1.9545938E3,7.3710625E3,8.96093E3,8.79975E3,2.2153375E4,5.62025E3,0E0,0E0,0E0,0E0,0E0,6.933203E1,9.5779297E2,3.583608E3,1.8140884E3,2.574004E3,9.3321484E2,4.0540625E2,3.659375E2,0E0,0E0,0E0,0E0,0E0,0E0,0E0,0E0,0E0,0E0,0E0,0E0,0E0,0E0,0E0,0E0,0E0,0E0,0E0],"parents":[2147483647,0,0,1,1,2,2,3,3,4,4,5,5,6,6,7,7,8,8,9,9,10,10,11,11,12,12,13,13,14,14,20,20,21,21,22,22,23,23,24,24,25,25,26,26,27,27],"right_children":[2,4,6,8,10,12,14,16,18,20,22,24,26,28,30,-1,-1,-1,-1,-1,32,34,36,38,40,42,44,46,-1,-1,-1,-1,-1,-1,-1,-1,-1,-1,-1,-1,-1,-1,-1,-1,-1,-1,-1],"split_conditions":[4.0442118E-1,1.7704867E-1,6.0846376E-1,9.285816E-2,3.0168954E-1,5.1208955E-1,7.683366E-1,6.0190376E-2,1.670032E-1,2.6131406E-1,3.4368435E-1,4.826247E-1,5.599068E-1,7.051975E-1,7.766259E-1,-7.745664E-1,-6.73313E-1,-5.792861E-1,-4.596096E-1,-3.2249972E-1,3.215316E-1,3.2494414E-1,3.7858388E-1,4.5693862E-1,3.7673318E-1,2.3489104E-1,4.5143858E-1,6.8884265E-1,7.128952E-1,8.093489E-1,1.0831363E0,-2.4682271E-1,-1.660886E-1,-1.6865331E-1,-1.2544693E-1,-9.279691E-2,1.7079424E-2,-1.240926E-1,5.9617814E-2,1.0894428E-1,2.1485004E-1,1.6035736E-1,2.9117203E-1,2.2061777E-1,4.379504E-1,5.306198E-1,6.112376E-1],"split_indices":[1,14,3,1,29,2,2,3,17,14,2,27,17,15,17,0,0,0,0,0,17,1,17,16,13,11,13,17,0,0,0,0,0,0,0,0,0,0,0,0,0,0,0,0,0,0,0],"split_type":[0,0,0,0,0,0,0,0,0,0,0,0,0,0,0,0,0,0,0,0,0,0,0,0,0,0,0,0,0,0,0,0,0,0,0,0,0,0,0,0,0,0,0,0,0,0,0],"sum_hessian":[2.017E3,1.12E3,8.97E2,5.53E2,5.67E2,3.65E2,5.32E2,3.35E2,2.18E2,1.7E2,3.97E2,1.97E2,1.68E2,4.34E2,9.8E1,1.79E2,1.56E2,1.79E2,3.9E1,6.4E1,1.06E2,2.57E2,1.4E2,6.1E1,1.36E2,5.9E1,1.09E2,2.72E2,1.62E2,2.9E1,6.9E1,9.6E1,1E1,1.47E2,1.1E2,9.8E1,4.2E1,5E0,5.6E1,3.4E1,1.02E2,1.1E1,4.8E1,4E0,1.05E2,2.02E2,7E1],"tree_param":{"num_deleted":"0","num_feature":"31","num_nodes":"47","size_leaf_vector":"1"}},{"base_weights":[-1.8229453E-1,-4.0715767E1,5.08993E1,-6.62005E1,-1.5882969E1,2.5140224E1,6.707142E1,-7.4368554E-1,-5.8486404E1,-2.6745386E1,-1.1503982E1,1.4780346E1,3.7187595E1,5.961887E1,9.667268E1,-6.313769E-1,-5.258158E-1,-3.1357056E-1,-2.3916326E-1,-1.35362625E1,-1.8102722E0,4.8533144E0,1.9163061E1,2.914893E1,4.400341E-1,5.3411293E-1,6.77628E-1,8.4616905E-1,1.1140249E0,-1.6980636E-1,-1.10420786E-1,-7.1917824E-2,2.3028273E-2,7.511529E-2,-4.926008E-2,1.5060928E-1,2.2788383E-1,2.0661296E-1,3.0926484E-1],"categories":[],"categories_nodes":[],"categories_segments":[],"categories_sizes":[],"default_left":[0,0,0,0,0,0,0,0,0,0,0,0,0,0,0,0,0,0,0,0,0,0,0,0,0,0,0,0,0,0,0,0,0,0,0,0,0,0,0],"id":4,"left_children":[1,3,5,7,9,11,13,-1,15,17,19,21,23,25,27,-1,-1,-1,-1,29,31,33,35,37,-1,-1,-1,-1,-1,-1,-1,-1,-1,-1,-1,-1,-1,-1,-1],"loss_changes":[4.118255E6,7.007871E5,3.6490325E5,3.01165E4,2.6472188E4,4.2010312E4,1.1336325E5,0E0,4.5351875E3,1.3505781E3,7.9147305E3,7.9558555E3,7.3194062E3,1.8321125E4,9.574375E3,0E0,0E0,0E0,0E0,2.6732656E3,1.5881243E3,1.5447432E3,1.5603438E3,4.925547E2,0E0,0E0,0E0,0E0,0E0,0E0,0E0,0E0,0E0,0E0,0E0,0E0,0E0,0E0,0E0],"parents":[2147483647,0,0,1,1,2,2,3,3,4,4,5,5,6,6,8,8,9,9,10,10,11,11,12,12,13,13,14,14,19,19,20,20,21,21,22,22,23,23],"right_children":[2,4,6,8,10,12,14,-1,16,18,20,22,24,26,28,-1,-1,-1,-1,30,32,34,36,38,-1,-1,-1,-1,-1,-1,-1,-1,-1,-1,-1,-1,-1,-1,-1],"split_conditions":[4.0442118E-1,1.8559334E-1,6.064014E-1,8.075561E-2,3.0168954E-1,5.1208955E-1,7.594669E-1,-7.4368554E-1,1.191944E-1,2.6131406E-1,3.6827335E-1,4.826247E-1,5.867873E-1,6.993798E-1,8.6439437E-1,-6.313769E-1,-5.258158E-1,-3.1357056E-1,-2.3916326E-1,3.2494414E-1,3.588338E-1,4.9039534E-1,4.7619578E-1,4.599452E-1,4.400341E-1,5.3411293E-1,6.77628E-1,8.4616905E-1,1.1140249E0,-1.6980636E-1,-1.10420786E-1,-7.1917824E-2,2.3028273E-2,7.511529E-2,-4.926008E-2,1.5060928E-1,2.2788383E-1,2.0661296E-1,3.0926484E-1],"split_indices":[1,0,3,21,29,2,2,0,2,14,0,27,17,15,2,0,0,0,0,1,17,10,0,17,0,0,0,0,0,0,0,0,0,0,0,0,0,0,0],"split_type":[0,0,0,0,0,0,0,0,0,0,0,0,0,0,0,0,0,0,0,0,0,0,0,0,0,0,0,0,0,0,0,0,0,0,0,0,0,0,0],"sum_hessian":[1.987E3,1.108E3,8.79E2,5.46E2,5.62E2,3.4E2,5.39E2,2.61E2,2.85E2,1.6E2,4.02E2,1.84E2,1.56E2,4.33E2,1.06E2,1.54E2,1.31E2,5.7E1,1.03E2,3.32E2,7E1,5.7E1,1.27E2,7.4E1,8.2E1,2.5E2,1.83E2,6.2E1,4.4E1,1.37E2,1.95E2,3E1,4E1,4.5E1,1.2E1,6.2E1,6.5E1,1.5E1,5.9E1],"tree_param":{"num_deleted":"0","num_feature":"31","num_nodes":"39","size_leaf_vector":"1"}},{"base_weights":[-3.2564908E-1,-4.01157E1,5.0788246E1,-6.55818E1,-1.6063524E1,2.5932453E1,6.6708755E1,-7.37917E-1,-5.7966747E1,-2.6634897E1,-1.1512173E1,1.5651486E1,3.7246384E1,5.900882E1,9.5728264E1,-6.2534904E-1,-5.2104074E-1,-3.152558E-1,-2.330896E1,-1.33731365E1,-1.4290137E0,4.4812746E0,1.9261475E1,2.6581938E1,4.2240006E-1,5.288225E-1,6.823053E-1,8.078674E-1,1.0665103E0,-2.3911394E-1,-1.5822819E-1,-1.6319022E-1,-1.0332922E-1,-6.3237354E-2,4.8652522E-2,-1.2264798E-1,6.8226196E-2,1.2152683E-1,2.1379924E-1,1.5555687E-1,2.898496E-1],"categories":[],"categories_nodes":[],"categories_segments":[],"categories_sizes":[],"default_left":[0,0,0,0,0,0,0,0,0,0,0,0,0,0,0,0,0,0,0,0,0,0,0,0,0,0,0,0,0,0,0,0,0,0,0,0,0,0,0,0,0],"id":5,"left_children":[1,3,5,7,9,11,13,-1,15,17,19,21,23,25,27,-1,-1,-1,29,31,33,35,37,39,-1,-1,-1,-1,-1,-1,-1,-1,-1,-1,-1,-1,-1,-1,-1,-1,-1],"loss_changes":[4.09816E6,6.9292625E5,3.4729225E5,3.010775E4,2.7791953E4,3.9663125E4,1.1434325E5,0E0,4.508375E3,2.1117422E3,7.674289E3,7.293039E3,7.610875E3,2.0516125E4,9.4995E3,0E0,0E0,0E0,1.0872656E2,2.9301953E3,2.0333307E3,1.887262E3,1.8184062E3,1.00641797E3,0E0,0E0,0E0,0E0,0E0,0E0,0E0,0E0,0E0,0E0,0E0,0E0,0E0,0E0,0E0,0E0,0E0],"parents":[2147483647,0,0,1,1,2,2,3,3,4,4,5,5,6,6,8,8,9,9,10,10,11,11,12,12,13,13,14,14,18,18,19,19,20,20,21,21,22,22,23,23],"right_children":[2,4,6,8,10,12,14,-1,16,18,20,22,24,26,28,-1,-1,-1,30,32,34,36,38,40,-1,-1,-1,-1,-1,-1,-1,-1,-1,-1,-1,-1,-1,-1,-1,-1,-1],"split_conditions":[4.1352734E-1,1.7704867E-1,6.0846376E-1,8.075561E-2,3.0168954E-1,5.1276165E-1,7.592026E-1,-7.37917E-1,1.15309626E-1,2.6131406E-1,3.630285E-1,4.826247E-1,5.599068E-1,6.8246835E-1,8.4794253E-1,-6.2534904E-1,-5.2104074E-1,-3.152558E-1,3.215316E-1,3.2878622E-1,3.5753593E-1,4.5693862E-1,4.490599E-1,2.3489104E-1,4.2240006E-1,5.288225E-1,6.823053E-1,8.078674E-1,1.0665103E0,-2.3911394E-1,-1.5822819E-1,-1.6319022E-1,-1.0332922E-1,-6.3237354E-2,4.8652522E-2,-1.2264798E-1,6.8226196E-2,1.2152683E-1,2.1379924E-1,1.5555687E-1,2.898496E-1],"split_indices":[1,14,3,21,29,3,1,0,14,14,2,27,17,3,29,0,0,0,17,1,13,16,3,11,0,0,0,0,0,0,0,0,0,0,0,0,0,0,0,0,0],"split_type":[0,0,0,0,0,0,0,0,0,0,0,0,0,0,0,0,0,0,0,0,0,0,0,0,0,0,0,0,0,0,0,0,0,0,0,0,0,0,0,0,0],"sum_hessian":[2.013E3,1.132E3,8.81E2,5.49E2,5.83E2,3.45E2,5.36E2,2.6E2,2.89E2,1.74E2,4.09E2,1.82E2,1.63E2,4.26E2,1.1E2,1.57E2,1.32E2,6.7E1,1.07E2,3.45E2,6.4E1,4.5E1,1.37E2,5.4E1,1.09E2,2.6E2,1.66E2,5E1,6E1,9.7E1,1E1,1.73E2,1.72E2,3.6E1,2.8E1,5E0,4E1,3.3E1,1.04E2,1.1E1,4.3E1],"tree_param":{"num_deleted":"0","num_feature":"31","num_nodes":"41","size_leaf_vector":"1"}},{"base_weights":[1.4985943E-1,-3.932659E1,5.0982998E1,-6.430142E1,-1.5330904E1,2.5548454E1,6.6356346E1,-7.03509E1,-5.367373E1,-2.1743624E1,-8.026823E0,1.7237326E1,3.9327766E1,5.9277958E1,9.938573E1,-7.473221E-1,-6.4664704E-1,-5.572236E-1,-4.3932492E-1,-2.7915913E1,-1.7566504E1,-1.0437708E1,-7.470343E-1,1.0213877E1,2.3580915E1,2.4635887E1,4.1941375E-1,5.2998695E1,6.791822E-1,7.9127216E-1,1.0596799E0,-3.071631E-1,-2.5030705E-1,-2.1272522E-1,-1.6521305E-1,-1.119335E-1,-6.512405E-2,-5.447162E-2,4.113304E-2,3.692233E-2,1.4683285E-1,1.8620093E-1,2.5424683E-1,6.651245E-2,2.5202557E-1,4.792883E-1,5.501957E-1],"categories":[],"categories_nodes":[],"categories_segments":[],"categories_sizes":[],"default_left":[0,0,0,0,0,0,0,0,0,0,0,0,0,0,0,0,0,0,0,0,0,0,0,0,0,0,0,0,0,0,0,0,0,0,0,0,0,0,0,0,0,0,0,0,0,0,0],"id":6,"left_children":[1,3,5,7,9,11,13,15,17,19,21,23,25,27,29,-1,-1,-1,-1,31,33,35,37,39,41,43,-1,45,-1,-1,-1,-1,-1,-1,-1,-1,-1,-1,-1,-1,-1,-1,-1,-1,-1,-1,-1],"loss_changes":[3.9893415E6,6.696179E5,3.38096E5,3.145575E4,2.661739E4,3.6999703E4,1.205915E5,3.7875E3,1.6030625E3,7.3474688E3,4.7133516E3,8.981797E3,3.6897969E3,2.0706375E4,4.1496875E3,0E0,0E0,0E0,0E0,2.0879688E2,3.6127344E2,5.2625977E2,1.5758123E3,2.8605752E3,5.144219E2,4.6390625E1,0E0,6.78125E1,0E0,0E0,0E0,0E0,0E0,0E0,0E0,0E0,0E0,0E0,0E0,0E0,0E0,0E0,0E0,0E0,0E0,0E0,0E0],"parents":[2147483647,0,0,1,1,2,2,3,3,4,4,5,5,6,6,7,7,8,8,9,9,10,10,11,11,12,12,13,13,14,14,19,19,20,20,21,21,22,22,23,23,24,24,25,25,27,27],"right_children":[2,4,6,8,10,12,14,16,18,20,22,24,26,28,30,-1,-1,-1,-1,32,34,36,38,40,42,44,-1,46,-1,-1,-1,-1,-1,-1,-1,-1,-1,-1,-1,-1,-1,-1,-1,-1,-1,-1,-1],"split_conditions":[4.0178064E-1,1.8559334E-1,6.064014E-1,9.546597E-2,3.229457E-1,5.599068E-1,7.619524E-1,6.237496E-2,1.670032E-1,2.8470865E-1,3.6677754E-1,4.7709998E-1,5.072253E-1,6.796489E-1,7.766259E-1,-7.473221E-1,-6.4664704E-1,-5.572236E-1,-4.3932492E-1,2.6131406E-1,2.9623938E-1,5.6171656E-1,3.5753593E-1,4.7764766E-1,4.7447768E-1,6.608906E-2,4.1941375E-1,6.279371E-1,6.791822E-1,7.9127216E-1,1.0596799E0,-3.071631E-1,-2.5030705E-1,-2.1272522E-1,-1.6521305E-1,-1.119335E-1,-6.512405E-2,-5.447162E-2,4.113304E-2,3.692233E-2,1.4683285E-1,1.8620093E-1,2.5424683E-1,6.651245E-2,2.5202557E-1,4.792883E-1,5.501957E-1],"split_indices":[3,0,3,17,1,17,3,1,17,20,2,2,29,3,17,0,0,0,0,14,30,11,13,27,17,4,0,3,0,0,0,0,0,0,0,0,0,0,0,0,0,0,0,0,0,0,0],"split_type":[0,0,0,0,0,0,0,0,0,0,0,0,0,0,0,0,0,0,0,0,0,0,0,0,0,0,0,0,0,0,0,0,0,0,0,0,0,0,0,0,0,0,0,0,0,0,0],"sum_hessian":[1.986E3,1.118E3,8.68E2,5.47E2,5.71E2,3.28E2,5.4E2,3.45E2,2.02E2,3.03E2,2.68E2,2.06E2,1.22E2,4.47E2,9.3E1,1.88E2,1.57E2,1.63E2,3.9E1,1.2E2,1.83E2,2.01E2,6.7E1,9.9E1,1.07E2,2E1,1.02E2,2.63E2,1.84E2,2.6E1,6.7E1,5.6E1,6.4E1,3.6E1,1.47E2,1.67E2,3.4E1,3.4E1,3.3E1,4.1E1,5.8E1,3.2E1,7.5E1,1E0,1.9E1,8.2E1,1.81E2],"tree_param":{"num_deleted":"0","num_feature":"31","num_nodes":"47","size_leaf_vector":"1"}},{"base_weights":[-2.4585696E-3,-3.8628857E1,4.984946E1,-6.3935555E1,-1.5113214E1,2.532464E1,6.46801E1,-6.948331E1,-5.3431683E1,-2.1490477E1,-7.9704547E0,1.5625133E1,3.7067493E1,5.730054E1,9.1122574E1,-7.456289E-1,-6.4861965E-1,-5.530725E-1,-4.3767893E-1,-2.752654E1,-1.7240288E1,-1.0063119E1,1.3181071E0,8.341735E0,2.1857246E1,2.3508116E1,4.117926E1,5.19977E-1,6.612267E-1,7.706631E-1,1.0409247E0,-3.0645102E-1,-2.4842584E-1,-2.0879707E-1,-1.6182204E-1,-1.0915951E-1,-4.3188903E-2,-4.2773314E-2,8.02434E-2,3.9923828E-2,1.373059E-1,1.00973785E-1,2.2932993E-1,9.621456E-2,2.642762E-1,2.9456344E-1,4.280926E-1],"categories":[],"categories_nodes":[],"categories_segments":[],"categories_sizes":[],"default_left":[0,0,0,0,0,0,0,0,0,0,0,0,0,0,0,0,0,0,0,0,0,0,0,0,0,0,0,0,0,0,0,0,0,0,0,0,0,0,0,0,0,0,0,0,0,0,0],"id":7,"left_children":[1,3,5,7,9,11,13,15,17,19,21,23,25,27,29,-1,-1,-1,-1,31,33,35,37,39,41,43,45,-1,-1,-1,-1,-1,-1,-1,-1,-1,-1,-1,-1,-1,-1,-1,-1,-1,-1,-1,-1],"loss_changes":[3.8550515E6,6.703101E5,3.1625225E5,2.79295E4,2.6521734E4,3.712167E4,1.0093125E5,3.4265E3,1.0593125E3,7.4526562E3,5.4169844E3,8.1242188E3,7.3391406E3,1.6584625E4,1.33080625E4,0E0,0E0,0E0,0E0,2.9332812E2,3.7066797E2,1.0648965E3,1.9855875E3,1.9608535E3,1.0081953E3,1.2457891E3,8.982656E2,0E0,0E0,0E0,0E0,0E0,0E0,0E0,0E0,0E0,0E0,0E0,0E0,0E0,0E0,0E0,0E0,0E0,0E0,0E0,0E0],"parents":[2147483647,0,0,1,1,2,2,3,3,4,4,5,5,6,6,7,7,8,8,9,9,10,10,11,11,12,12,13,13,14,14,19,19,20,20,21,21,22,22,23,23,24,24,25,25,26,26],"right_children":[2,4,6,8,10,12,14,16,18,20,22,24,26,28,30,-1,-1,-1,-1,32,34,36,38,40,42,44,46,-1,-1,-1,-1,-1,-1,-1,-1,-1,-1,-1,-1,-1,-1,-1,-1,-1,-1,-1,-1],"split_conditions":[4.0490046E-1,1.8559334E-1,6.064014E-1,9.546597E-2,3.229457E-1,5.175244E-1,7.5958616E-1,5.3359874E-2,1.4873843E-1,2.8470865E-1,3.953913E-1,4.661272E-1,5.072549E-1,7.004605E-1,8.141629E-1,-7.456289E-1,-6.4861965E-1,-5.530725E-1,-4.3767893E-1,2.6275977E-1,2.9623938E-1,3.6677754E-1,3.9858603E-1,4.6515155E-1,4.4510698E-1,5.0272346E-1,5.3847224E-1,5.19977E-1,6.612267E-1,7.706631E-1,1.0409247E0,-3.0645102E-1,-2.4842584E-1,-2.0879707E-1,-1.6182204E-1,-1.0915951E-1,-4.3188903E-2,-4.2773314E-2,8.02434E-2,3.9923828E-2,1.373059E-1,1.00973785E-1,2.2932993E-1,9.621456E-2,2.642762E-1,2.9456344E-1,4.280926E-1],"split_indices":[0,0,3,17,1,3,20,0,0,20,17,2,17,15,3,0,0,0,0,30,30,2,14,17,12,10,15,0,0,0,0,0,0,0,0,0,0,0,0,0,0,0,0,0,0,0,0],"split_type":[0,0,0,0,0,0,0,0,0,0,0,0,0,0,0,0,0,0,0,0,0,0,0,0,0,0,0,0,0,0,0,0,0,0,0,0,0,0,0,0,0,0,0,0,0,0,0],"sum_hessian":[2E3,1.127E3,8.73E2,5.42E2,5.85E2,3.3E2,5.43E2,3.51E2,1.91E2,3.08E2,2.77E2,1.82E2,1.48E2,4.27E2,1.16E2,1.6E2,1.91E2,1.56E2,3.5E1,1.25E2,1.83E2,2.26E2,5.1E1,8.5E1,9.7E1,3.6E1,1.12E2,2.71E2,1.56E2,5.9E1,5.7E1,5.3E1,7.2E1,3.7E1,1.46E2,1.96E2,3E1,2.8E1,2.3E1,4.8E1,3.7E1,9E0,8.8E1,7E0,2.9E1,1.6E1,9.6E1],"tree_param":{"num_deleted":"0","num_feature":"31","num_nodes":"47","size_leaf_vector":"1"}},{"base_weights":[3.7431356E-1,-3.899303E1,4.904304E1,-6.339961E1,-1.5512624E1,1.9394066E1,6.234397E1,-6.931805E1,-5.3740936E1,-2.6151428E1,-1.1085335E1,1.0761626E1,2.69039E1,5.452314E1,9.06073E1,-7.3896325E-1,-6.452052E-1,-5.542084E-1,-4.3414938E-1,-3.0788115E-1,-2.2985748E1,-1.3121755E1,-1.7835412E0,3.3602896E0,1.5437974E1,2.3348999E1,3.5918407E1,4.7856857E1,6.281127E1,7.553622E-1,1.0211742E0,-2.3730095E-1,-1.6064441E-1,-1.562354E-1,-1.0048813E-1,-6.38273E-2,4.3086298E-2,-1.1644733E-1,4.516612E-2,8.834173E-2,1.7492004E-1,1.6236958E-1,2.4960813E-1,2.3207326E-1,3.837095E-1,4.3468052E-1,5.0466084E-1,5.701503E-1,6.6214913E-1],"categories":[],"categories_nodes":[],"categories_segments":[],"categories_sizes":[],"default_left":[0,0,0,0,0,0,0,0,0,0,0,0,0,0,0,0,0,0,0,0,0,0,0,0,0,0,0,0,0,0,0,0,0,0,0,0,0,0,0,0,0,0,0,0,0,0,0,0,0],"id":8,"left_children":[1,3,5,7,9,11,13,15,17,19,21,23,25,27,29,-1,-1,-1,-1,-1,31,33,35,37,39,41,43,45,47,-1,-1,-1,-1,-1,-1,-1,-1,-1,-1,-1,-1,-1,-1,-1,-1,-1,-1,-1,-1],"loss_changes":[3.8261658E6,6.3169275E5,3.5095325E5,2.720075E4,2.6275094E4,1.7732703E4,1.3122225E5,2.524375E3,1.2366875E3,1.7142344E3,7.553543E3,4.4821943E3,3.9041094E3,2.379075E4,1.5184625E4,0E0,0E0,0E0,0E0,0E0,1.4427734E2,2.3646094E3,2.0728914E3,9.5482837E2,9.30625E2,8.4420703E2,3.564922E2,9.32625E2,4.269375E2,0E0,0E0,0E0,0E0,0E0,0E0,0E0,0E0,0E0,0E0,0E0,0E0,0E0,0E0,0E0,0E0,0E0,0E0,0E0,0E0],"parents":[2147483647,0,0,1,1,2,2,3,3,4,4,5,5,6,6,7,7,8,8,9,9,10,10,11,11,12,12,13,13,14,14,20,20,21,21,22,22,23,23,24,24,25,25,26,26,27,27,28,28],"right_children":[2,4,6,8,10,12,14,16,18,20,22,24,26,28,30,-1,-1,-1,-1,-1,32,34,36,38,40,42,44,46,48,-1,-1,-1,-1,-1,-1,-1,-1,-1,-1,-1,-1,-1,-1,-1,-1,-1,-1,-1,-1],"split_conditions":[4.0442118E-1,1.7704867E-1,5.72341E-1,9.285816E-2,3.0168954E-1,4.7943595E-1,7.4796516E-1,5.0077148E-2,1.4873843E-1,2.6131406E-1,3.6035368E-1,4.826247E-1,5.715417E-1,6.624738E-1,7.819473E-1,-7.3896325E-1,-6.452052E-1,-5.542084E-1,-4.3414938E-1,-3.0788115E-1,3.1837836E-1,3.313476E-1,3.9036152E-1,4.5693862E-1,4.7755623E-1,4.599452E-1,5.1569295E-1,6.199271E-1,7.051975E-1,7.553622E-1,1.0211742E0,-2.3730095E-1,-1.6064441E-1,-1.562354E-1,-1.0048813E-1,-6.38273E-2,4.3086298E-2,-1.1644733E-1,4.516612E-2,8.834173E-2,1.7492004E-1,1.6236958E-1,2.4960813E-1,2.3207326E-1,3.837095E-1,4.3468052E-1,5.0466084E-1,5.701503E-1,6.6214913E-1],"split_indices":[1,14,3,1,29,3,3,2,0,14,3,27,17,3,13,0,0,0,0,0,17,1,17,16,17,17,0,2,15,0,0,0,0,0,0,0,0,0,0,0,0,0,0,0,0,0,0,0,0],"split_type":[0,0,0,0,0,0,0,0,0,0,0,0,0,0,0,0,0,0,0,0,0,0,0,0,0,0,0,0,0,0,0,0,0,0,0,0,0,0,0,0,0,0,0,0,0,0,0,0,0],"sum_hessian":[1.995E3,1.103E3,8.92E2,5.4E2,5.63E2,2.77E2,6.15E2,3.31E2,2.09E2,1.64E2,3.99E2,1.3E2,1.47E2,4.84E2,1.31E2,1.62E2,1.69E2,1.76E2,3.3E1,6.3E1,1.01E2,3.27E2,7.2E1,5.1E1,7.9E1,1.08E2,3.9E1,2.72E2,2.12E2,6E1,7.1E1,8.9E1,1.2E1,1.78E2,1.49E2,4.1E1,3.1E1,3E0,4.8E1,2E1,5.9E1,2.2E1,8.6E1,8E0,3.1E1,1.08E2,1.64E2,8.5E1,1.27E2],"tree_param":{"num_deleted":"0","num_feature":"31","num_nodes":"49","size_leaf_vector":"1"}},{"base_weights":[1.5038031E-1,-3.93929E1,4.8141777E1,-6.297056E1,-1.5829508E1,1.9845812E1,6.211462E1,-6.882592E1,-5.3161995E1,-2.5301151E1,-1.1710928E1,9.033386E0,2.8094439E1,5.439381E1,8.8191216E1,-7.3245144E-1,-6.3858974E-1,-5.4934883E-1,-4.287992E-1,-3.013453E-1,-2.2298256E1,-1.5664681E1,-8.203678E0,4.3971276E0,1.4893909E1,2.2604113E1,3.5836033E1,4.8768982E1,6.2039196E1,7.826907E-1,1.0400827E0,-2.2737512E-1,-1.4130068E-1,-1.7289457E-1,-1.4096753E-1,-9.714322E-2,-1.5634064E-2,6.718858E-2,-4.2221863E-3,8.296387E-2,1.72662E-1,1.6633268E-1,2.455789E-1,2.4295482E-1,3.92065E-1,4.2625558E-1,5.093365E-1,5.7625604E-1,6.654917E-1],"categories":[],"categories_nodes":[],"categories_segments":[],"categories_sizes":[],"default_left":[0,0,0,0,0,0,0,0,0,0,0,0,0,0,0,0,0,0,0,0,0,0,0,0,0,0,0,0,0,0,0,0,0,0,0,0,0,0,0,0,0,0,0,0,0,0,0,0,0],"id":9,"left_children":[1,3,5,7,9,11,13,15,17,19,21,23,25,27,29,-1,-1,-1,-1,-1,31,33,35,37,39,41,43,45,47,-1,-1,-1,-1,-1,-1,-1,-1,-1,-1,-1,-1,-1,-1,-1,-1,-1,-1,-1,-1],"loss_changes":[3.7556205E6,6.017965E5,3.522325E5,2.74695E4,2.0924984E4,2.6234938E4,1.1559975E5,2.697875E3,1.4178125E3,1.7083672E3,5.154742E3,3.4667256E3,6.330625E3,1.692825E4,1.304625E4,0E0,0E0,0E0,0E0,0E0,5.5453125E1,2.0973828E2,2.0311543E3,8.308396E2,7.48875E2,7.697578E2,1.6924609E3,1.4460625E3,6.75E0,0E0,0E0,0E0,0E0,0E0,0E0,0E0,0E0,0E0,0E0,0E0,0E0,0E0,0E0,0E0,0E0,0E0,0E0,0E0,0E0],"parents":[2147483647,0,0,1,1,2,2,3,3,4,4,5,5,6,6,7,7,8,8,9,9,10,10,11,11,12,12,13,13,14,14,20,20,21,21,22,22,23,23,24,24,25,25,26,26,27,27,28,28],"right_children":[2,4,6,8,10,12,14,16,18,20,22,24,26,28,30,-1,-1,-1,-1,-1,32,34,36,38,40,42,44,46,48,-1,-1,-1,-1,-1,-1,-1,-1,-1,-1,-1,-1,-1,-1,-1,-1,-1,-1,-1,-1],"split_conditions":[3.8618937E-1,1.7704867E-1,5.83338E-1,9.285816E-2,3.0168954E-1,4.7709998E-1,7.500486E-1,5.3359874E-2,1.670032E-1,2.6131406E-1,3.2878622E-1,4.7447768E-1,5.576432E-1,6.688498E-1,8.6439437E-1,-7.3245144E-1,-6.3858974E-1,-5.4934883E-1,-4.287992E-1,-3.013453E-1,3.215316E-1,3.1669196E-1,3.6871427E-1,8.348436E-1,4.2859104E-1,6.02235E-1,5.205674E-1,6.168707E-1,7.0209616E-1,7.826907E-1,1.0400827E0,-2.2737512E-1,-1.4130068E-1,-1.7289457E-1,-1.4096753E-1,-9.714322E-2,-1.5634064E-2,6.718858E-2,-4.2221863E-3,8.296387E-2,1.72662E-1,1.6633268E-1,2.455789E-1,2.4295482E-1,3.92065E-1,4.2625558E-1,5.093365E-1,5.7625604E-1,6.654917E-1],"split_indices":[3,14,3,1,29,2,2,0,17,14,1,17,17,2,2,0,0,0,0,0,17,17,1,18,2,25,0,2,17,0,0,0,0,0,0,0,0,0,0,0,0,0,0,0,0,0,0,0,0],"split_type":[0,0,0,0,0,0,0,0,0,0,0,0,0,0,0,0,0,0,0,0,0,0,0,0,0,0,0,0,0,0,0,0,0,0,0,0,0,0,0,0,0,0,0,0,0,0,0,0,0],"sum_hessian":[1.977E3,1.084E3,8.93E2,5.41E2,5.43E2,2.96E2,5.97E2,3.35E2,2.06E2,1.63E2,3.8E2,1.29E2,1.67E2,4.63E2,1.34E2,1.7E2,1.65E2,1.72E2,3.4E1,5.9E1,1.04E2,1.77E2,2.03E2,7.3E1,5.6E1,1E2,6.7E1,2.71E2,1.92E2,8.6E1,4.8E1,9.7E1,7E0,8.2E1,9.5E1,1.65E2,3.8E1,4.9E1,2.4E1,1.6E1,4E1,2.7E1,7.3E1,1.7E1,5E1,7.6E1,1.95E2,1.04E2,8.8E1],"tree_param":{"num_deleted":"0","num_feature":"31","num_nodes":"49","size_leaf_vector":"1"}},{"base_weights":[-1.1844276E0,-3.8915268E1,4.768362E1,-6.221734E1,-1.5376412E1,2.2956837E1,6.3375366E1,-6.7779854E1,-5.1567093E1,-2.5553938E1,-1.1001353E1,1.44172535E1,3.5166687E1,5.6395836E1,9.500006E1,-7.256897E-1,-6.2859476E-1,-5.385904E-1,-4.3545315E-1,-2.9857594E-1,-2.251869E1,-1.4726593E1,-6.838783E0,4.0788336E0,1.8310595E1,2.3718513E1,3.9125736E1,5.0380033E-1,6.5215256E1,7.5771356E-1,1.0161803E0,-2.3063987E-1,-1.519555E-1,-1.6016433E-1,-1.24045916E-1,-9.047955E-2,1.0035508E-2,6.883737E-2,-4.0468186E-2,1.0732805E-1,2.0447506E-1,5.0032742E-2,2.577315E-1,3.0310848E-1,4.0548858E-1,5.850545E-1,6.871184E-1],"categories":[],"categories_nodes":[],"categories_segments":[],"categories_sizes":[],"default_left":[0,0,0,0,0,0,0,0,0,0,0,0,0,0,0,0,0,0,0,0,0,0,0,0,0,0,0,0,0,0,0,0,0,0,0,0,0,0,0,0,0,0,0,0,0,0,0],"id":10,"left_children":[1,3,5,7,9,11,13,15,17,19,21,23,25,27,29,-1,-1,-1,-1,-1,31,33,35,37,39,41,43,-1,45,-1,-1,-1,-1,-1,-1,-1,-1,-1,-1,-1,-1,-1,-1,-1,-1,-1,-1],"loss_changes":[3.6563315E6,6.128194E5,3.337825E5,2.9799E4,2.4565094E4,3.4630984E4,1.111855E5,4.062875E3,1.276625E3,1.5091094E3,5.977867E3,7.975508E3,5.3266875E3,1.979375E4,4.2621875E3,0E0,0E0,0E0,0E0,0E0,5.6847656E1,4.1829297E2,3.2488691E3,1.3041906E3,2.128539E3,1.3322656E3,3.79375E1,0E0,3.88125E1,0E0,0E0,0E0,0E0,0E0,0E0,0E0,0E0,0E0,0E0,0E0,0E0,0E0,0E0,0E0,0E0,0E0,0E0],"parents":[2147483647,0,0,1,1,2,2,3,3,4,4,5,5,6,6,7,7,8,8,9,9,10,10,11,11,12,12,13,13,14,14,20,20,21,21,22,22,23,23,24,24,25,25,26,26,28,28],"right_children":[2,4,6,8,10,12,14,16,18,20,22,24,26,28,30,-1,-1,-1,-1,-1,32,34,36,38,40,42,44,-1,46,-1,-1,-1,-1,-1,-1,-1,-1,-1,-1,-1,-1,-1,-1,-1,-1,-1,-1],"split_conditions":[4.0442118E-1,1.7704867E-1,6.036134E-1,9.546597E-2,3.0168954E-1,5.2080834E-1,7.683366E-1,5.3359874E-2,1.5989769E-1,2.6131406E-1,3.3264887E-1,4.826247E-1,5.108722E-1,7.004605E-1,7.766259E-1,-7.256897E-1,-6.2859476E-1,-5.385904E-1,-4.3545315E-1,-2.9857594E-1,3.215316E-1,3.222751E-1,3.953913E-1,4.9039534E-1,3.954856E-1,4.8974422E-1,5.3847224E-1,5.0380033E-1,7.0209616E-1,7.5771356E-1,1.0161803E0,-2.3063987E-1,-1.519555E-1,-1.6016433E-1,-1.24045916E-1,-9.047955E-2,1.0035508E-2,6.883737E-2,-4.0468186E-2,1.0732805E-1,2.0447506E-1,5.0032742E-2,2.577315E-1,3.0310848E-1,4.0548858E-1,5.850545E-1,6.871184E-1],"split_indices":[1,14,3,17,29,2,2,0,17,14,3,27,17,15,17,0,0,0,0,0,17,1,17,10,13,12,15,0,17,0,0,0,0,0,0,0,0,0,0,0,0,0,0,0,0,0,0],"split_type":[0,0,0,0,0,0,0,0,0,0,0,0,0,0,0,0,0,0,0,0,0,0,0,0,0,0,0,0,0,0,0,0,0,0,0,0,0,0,0,0,0,0,0,0,0,0,0],"sum_hessian":[1.981E3,1.118E3,8.63E2,5.61E2,5.57E2,3.36E2,5.27E2,3.65E2,1.96E2,1.66E2,3.91E2,1.99E2,1.37E2,4.34E2,9.3E1,1.78E2,1.87E2,1.48E2,4.8E1,6.5E1,1.01E2,2.05E2,1.86E2,5.5E1,1.44E2,3.7E1,1E2,2.62E2,1.72E2,2.7E1,6.6E1,9.2E1,9E0,1.28E2,7.7E1,1.45E2,4.1E1,4.1E1,1.4E1,3.3E1,1.11E2,4E0,3.3E1,1.7E1,8.3E1,6.5E1,1.07E2],"tree_param":{"num_deleted":"0","num_feature":"31","num_nodes":"47","size_leaf_vector":"1"}},{"base_weights":[6.847826E-1,-3.6348892E1,4.921236E1,-6.1272583E1,-1.4365263E1,2.9836134E1,6.6917984E1,-6.6569145E1,-5.0080353E1,-2.0841867E1,-7.131123E0,1.5857958E1,4.0341602E1,6.0072186E1,9.853374E-1,-7.075511E-1,-6.092861E-1,-5.2226883E-1,-4.214173E-1,-2.6502514E1,-1.672086E1,-9.925672E0,2.4370604E0,2.615512E0,1.9080826E1,2.46953E1,4.2969368E1,5.4361923E1,6.960959E-1,-2.9531386E-1,-2.4065828E-1,-1.9925046E-1,-1.5757021E-1,-1.03156604E-1,3.4147937E-2,-4.8036516E-2,8.046346E-2,-8.1381135E-2,4.612487E-2,1.3589881E-1,2.2667708E-1,7.5085856E-2,2.7225137E-1,3.3303833E-1,4.4690204E-1,4.3324074E-1,5.552221E-1],"categories":[],"categories_nodes":[],"categories_segments":[],"categories_sizes":[],"default_left":[0,0,0,0,0,0,0,0,0,0,0,0,0,0,0,0,0,0,0,0,0,0,0,0,0,0,0,0,0,0,0,0,0,0,0,0,0,0,0,0,0,0,0,0,0,0,0],"id":11,"left_children":[1,3,5,7,9,11,13,15,17,19,21,23,25,27,-1,-1,-1,-1,-1,29,31,33,35,37,39,41,43,45,-1,-1,-1,-1,-1,-1,-1,-1,-1,-1,-1,-1,-1,-1,-1,-1,-1,-1,-1],"loss_changes":[3.5583575E6,6.1442625E5,2.92013E5,2.7847875E4,2.786929E4,5.97145E4,9.0827375E4,4.04725E3,7.470625E2,6.9050312E3,7.617997E3,7.5468945E3,8.559719E3,1.63665E4,0E0,0E0,0E0,0E0,0E0,2.5614062E2,2.573828E2,1.1798027E3,2.6786418E3,8.106271E2,2.5083867E3,1.3608418E3,1.8215625E3,6.17E2,0E0,0E0,0E0,0E0,0E0,0E0,0E0,0E0,0E0,0E0,0E0,0E0,0E0,0E0,0E0,0E0,0E0,0E0,0E0],"parents":[2147483647,0,0,1,1,2,2,3,3,4,4,5,5,6,6,7,7,8,8,9,9,10,10,11,11,12,12,13,13,19,19,20,20,21,21,22,22,23,23,24,24,25,25,26,26,27,27],"right_children":[2,4,6,8,10,12,14,16,18,20,22,24,26,28,-1,-1,-1,-1,-1,30,32,34,36,38,40,42,44,46,-1,-1,-1,-1,-1,-1,-1,-1,-1,-1,-1,-1,-1,-1,-1,-1,-1,-1,-1],"split_conditions":[4.162649E-1,1.7641279E-1,6.3525933E-1,1.0376568E-1,3.229457E-1,5.2867764E-1,8.314268E-1,6.500216E-2,1.670032E-1,2.8470865E-1,3.953913E-1,4.7195667E-1,5.108722E-1,7.1295404E-1,9.853374E-1,-7.075511E-1,-6.092861E-1,-5.2226883E-1,-4.214173E-1,2.6275977E-1,2.9623938E-1,5.142393E-1,3.9858603E-1,2.1326116E-1,4.7619578E-1,5.0272346E-1,5.6672984E-1,1.5182553E-1,6.960959E-1,-2.9531386E-1,-2.4065828E-1,-1.9925046E-1,-1.5757021E-1,-1.03156604E-1,3.4147937E-2,-4.8036516E-2,8.046346E-2,-8.1381135E-2,4.612487E-2,1.3589881E-1,2.2667708E-1,7.5085856E-2,2.7225137E-1,3.3303833E-1,4.4690204E-1,4.3324074E-1,5.552221E-1],"split_indices":[2,13,2,16,1,1,16,17,17,20,17,27,17,1,0,0,0,0,0,30,30,13,14,23,0,10,16,7,0,0,0,0,0,0,0,0,0,0,0,0,0,0,0,0,0,0,0],"split_type":[0,0,0,0,0,0,0,0,0,0,0,0,0,0,0,0,0,0,0,0,0,0,0,0,0,0,0,0,0,0,0,0,0,0,0,0,0,0,0,0,0,0,0,0,0,0,0],"sum_hessian":[1.978E3,1.122E3,8.56E2,5.25E2,5.97E2,4.1E2,4.46E2,3.53E2,1.72E2,3.14E2,2.83E2,1.77E2,2.33E2,3.69E2,7.7E1,1.96E2,1.57E2,1.31E2,4.1E1,1.3E2,1.84E2,2.19E2,6.4E1,3.5E1,1.42E2,3.5E1,1.98E2,2.35E2,1.34E2,5.3E1,7.7E1,3.8E1,1.46E2,2.13E2,6E0,2.8E1,3.6E1,5E0,3E1,5.8E1,8.4E1,5E0,3E1,3.3E1,1.65E2,2.6E1,2.09E2],"tree_param":{"num_deleted":"0","num_feature":"31","num_nodes":"47","size_leaf_vector":"1"}},{"base_weights":[5.482793E-2,-3.6699722E1,4.8632458E1,-6.041812E1,-1.4337644E1,2.869369E1,6.566072E1,-6.573E1,-4.9582623E1,-2.069187E1,-7.0498476E0,1.8567352E1,4.169792E1,5.849552E1,9.462695E1,-7.0890754E-1,-6.118913E-1,-5.195455E-1,-4.2139333E-1,-2.6616718E1,-1.636989E1,-9.450661E0,2.0540557E0,3.2311838E0,2.1568453E1,2.2680779E1,4.272547E-1,5.2176785E1,6.581413E1,7.518131E-1,1.0018021E0,-2.9323992E-1,-2.3633401E-1,-1.6986623E-1,-1.21773995E-1,-1.0218072E-1,-2.184149E-2,-2.759364E-2,5.7842024E-2,6.0292203E-2,-4.1848358E-2,1.3115595E-1,2.3984711E-1,9.488939E-2,2.886341E-1,4.7059837E-1,5.507515E-1,5.010206E-1,6.7355293E-1],"categories":[],"categories_nodes":[],"categories_segments":[],"categories_sizes":[],"default_left":[0,0,0,0,0,0,0,0,0,0,0,0,0,0,0,0,0,0,0,0,0,0,0,0,0,0,0,0,0,0,0,0,0,0,0,0,0,0,0,0,0,0,0,0,0,0,0,0,0],"id":12,"left_children":[1,3,5,7,9,11,13,15,17,19,21,23,25,27,29,-1,-1,-1,-1,31,33,35,37,39,41,43,-1,45,47,-1,-1,-1,-1,-1,-1,-1,-1,-1,-1,-1,-1,-1,-1,-1,-1,-1,-1,-1,-1],"loss_changes":[3.556614E6,6.0059925E5,2.8942638E5,2.8397E4,2.6944484E4,5.1504812E4,9.0352375E4,4.239375E3,1.0768125E3,7.5536875E3,6.008171E3,1.0286023E4,2.4115625E3,1.3815125E4,2.187125E3,0E0,0E0,0E0,0E0,3.569453E2,2.663203E2,1.1877598E3,1.057337E3,8.1374255E2,3.5251875E3,6.232803E2,0E0,4.485E2,7.176875E2,0E0,0E0,0E0,0E0,0E0,0E0,0E0,0E0,0E0,0E0,0E0,0E0,0E0,0E0,0E0,0E0,0E0,0E0,0E0,0E0],"parents":[2147483647,0,0,1,1,2,2,3,3,4,4,5,5,6,6,7,7,8,8,9,9,10,10,11,11,12,12,13,13,14,14,19,19,20,20,21,21,22,22,23,23,24,24,25,25,27,27,28,28],"right_children":[2,4,6,8,10,12,14,16,18,20,22,24,26,28,30,-1,-1,-1,-1,32,34,36,38,40,42,44,-1,46,48,-1,-1,-1,-1,-1,-1,-1,-1,-1,-1,-1,-1,-1,-1,-1,-1,-1,-1,-1,-1],"split_conditions":[4.257287E-1,1.7641279E-1,6.279371E-1,1.0376568E-1,3.2494414E-1,5.7205003E-1,7.859379E-1,5.2600894E-2,1.5989769E-1,2.8470865E-1,3.7243998E-1,4.7764766E-1,4.599452E-1,7.051975E-1,7.766259E-1,-7.0890754E-1,-6.118913E-1,-5.195455E-1,-4.2139333E-1,2.6131406E-1,3.4547842E-1,3.953913E-1,3.8251472E-1,4.9039534E-1,4.4422406E-1,5.0272346E-1,4.272547E-1,6.3303983E-1,5.346191E-1,7.518131E-1,1.0018021E0,-2.9323992E-1,-2.3633401E-1,-1.6986623E-1,-1.21773995E-1,-1.0218072E-1,-2.184149E-2,-2.759364E-2,5.7842024E-2,6.0292203E-2,-4.1848358E-2,1.3115595E-1,2.3984711E-1,9.488939E-2,2.886341E-1,4.7059837E-1,5.507515E-1,5.010206E-1,6.7355293E-1],"split_indices":[1,13,3,16,1,15,1,2,17,20,2,27,17,15,17,0,0,0,0,14,17,17,30,10,30,10,0,17,25,0,0,0,0,0,0,0,0,0,0,0,0,0,0,0,0,0,0,0,0],"split_type":[0,0,0,0,0,0,0,0,0,0,0,0,0,0,0,0,0,0,0,0,0,0,0,0,0,0,0,0,0,0,0,0,0,0,0,0,0,0,0,0,0,0,0,0,0,0,0,0,0],"sum_hessian":[1.99E3,1.133E3,8.57E2,5.49E2,5.84E2,3.96E2,4.61E2,3.65E2,1.84E2,3.11E2,2.73E2,2.24E2,1.72E2,3.72E2,8.9E1,1.64E2,2.01E2,1.35E2,4.9E1,1.29E2,1.82E2,2.16E2,5.7E1,3.7E1,1.87E2,1E1,1.62E2,2.04E2,1.68E2,2.3E1,6.6E1,6.3E1,6.6E1,1.56E2,2.6E1,1.95E2,2.1E1,2.5E1,3.2E1,2.7E1,1E1,4.3E1,1.44E2,4E0,6E0,8E1,1.24E2,1.8E1,1.5E2],"tree_param":{"num_deleted":"0","num_feature":"31","num_nodes":"49","size_leaf_vector":"1"}},{"base_weights":[1.6834971E-1,-3.623967E1,4.6830204E1,-5.989218E1,-1.4109852E1,2.3925802E1,6.135721E1,-6.551349E1,-4.952434E1,-2.4265043E1,-1.0301311E1,1.4919796E1,3.5913864E1,5.5561584E1,9.418049E1,-7.0566016E-1,-6.1112934E-1,-5.1455325E-1,-4.07554E-1,-2.8026512E-1,-2.2264114E-1,-1.3403451E1,-5.0272665E0,8.292245E0,2.1011219E1,2.3582458E1,3.9306377E1,4.9046183E-1,6.417509E1,7.1434903E-1,9.9265E-1,-1.5082414E-1,-1.087E-1,-8.407663E-2,1.7014243E-2,2.5078971E-2,1.2558614E-1,9.916477E-2,2.210938E-1,1.0856572E-1,2.59217E-1,3.2276934E-1,4.1458258E-1,5.767598E-1,6.7301184E-1],"categories":[],"categories_nodes":[],"categories_segments":[],"categories_sizes":[],"default_left":[0,0,0,0,0,0,0,0,0,0,0,0,0,0,0,0,0,0,0,0,0,0,0,0,0,0,0,0,0,0,0,0,0,0,0,0,0,0,0,0,0,0,0,0,0],"id":13,"left_children":[1,3,5,7,9,11,13,15,17,19,21,23,25,27,29,-1,-1,-1,-1,-1,-1,31,33,35,37,39,41,-1,43,-1,-1,-1,-1,-1,-1,-1,-1,-1,-1,-1,-1,-1,-1,-1,-1],"loss_changes":[3.3994282E6,5.874855E5,2.9033825E5,2.8401875E4,2.2259734E4,3.6388047E4,9.673125E4,3.44725E3,1.20475E3,5.651953E2,6.8859688E3,7.7788945E3,5.1808906E3,2.25555E4,2.0453125E3,0E0,0E0,0E0,0E0,0E0,0E0,9.717578E2,3.6308628E3,2.337608E3,1.0235039E3,7.3072266E2,3.7114062E2,0E0,5.98125E1,0E0,0E0,0E0,0E0,0E0,0E0,0E0,0E0,0E0,0E0,0E0,0E0,0E0,0E0,0E0,0E0],"parents":[2147483647,0,0,1,1,2,2,3,3,4,4,5,5,6,6,7,7,8,8,9,9,10,10,11,11,12,12,13,13,14,14,21,21,22,22,23,23,24,24,25,25,26,26,28,28],"right_children":[2,4,6,8,10,12,14,16,18,20,22,24,26,28,30,-1,-1,-1,-1,-1,-1,32,34,36,38,40,42,-1,44,-1,-1,-1,-1,-1,-1,-1,-1,-1,-1,-1,-1,-1,-1,-1,-1],"split_conditions":[4.0178064E-1,2.0568804E-1,6.064014E-1,9.665664E-2,3.0168954E-1,5.2867764E-1,7.887766E-1,4.9653918E-2,1.4873843E-1,2.6275977E-1,3.4019738E-1,4.661272E-1,5.072549E-1,7.028313E-1,7.766259E-1,-7.0566016E-1,-6.1112934E-1,-5.1455325E-1,-4.07554E-1,-2.8026512E-1,-2.2264114E-1,3.2494414E-1,3.7858388E-1,4.7764766E-1,4.363719E-1,5.0272346E-1,5.508043E-1,4.9046183E-1,6.98506E-1,7.1434903E-1,9.9265E-1,-1.5082414E-1,-1.087E-1,-8.407663E-2,1.7014243E-2,2.5078971E-2,1.2558614E-1,9.916477E-2,2.210938E-1,1.0856572E-1,2.59217E-1,3.2276934E-1,4.1458258E-1,5.767598E-1,6.7301184E-1],"split_indices":[3,16,3,17,29,1,3,3,0,30,3,2,17,15,17,0,0,0,0,0,0,1,17,27,17,10,16,0,17,0,0,0,0,0,0,0,0,0,0,0,0,0,0,0,0],"split_type":[0,0,0,0,0,0,0,0,0,0,0,0,0,0,0,0,0,0,0,0,0,0,0,0,0,0,0,0,0,0,0,0,0,0,0,0,0,0,0,0,0,0,0,0,0],"sum_hessian":[1.999E3,1.123E3,8.76E2,5.42E2,5.81E2,3.41E2,5.35E2,3.48E2,1.94E2,1.57E2,4.24E2,1.96E2,1.45E2,4.57E2,7.8E1,1.55E2,1.93E2,1.55E2,3.9E1,5E1,1.07E2,2.66E2,1.58E2,9.5E1,1.01E2,3.3E1,1.12E2,2.64E2,1.93E2,1.7E1,6.1E1,1.57E2,1.09E2,1.05E2,5.3E1,4.1E1,5.4E1,1E1,9.1E1,6E0,2.7E1,3E1,8.2E1,6.9E1,1.24E2],"tree_param":{"num_deleted":"0","num_feature":"31","num_nodes":"45","size_leaf_vector":"1"}},{"base_weights":[8.617147E-1,-3.6224575E1,4.6537186E1,-5.951345E1,-1.4299773E1,2.376348E1,6.152138E1,-6.7619663E-1,-5.2456257E1,-2.428876E1,-1.021505E1,1.3159628E1,3.3719513E1,5.5413174E1,9.409326E1,-5.7061285E-1,-4.7621256E-1,-2.8578457E-1,-2.1565329E1,-1.2170514E1,-4.5972365E-1,5.445217E0,1.825071E1,2.3694939E1,3.861975E1,4.8820614E1,6.3673477E1,7.199605E-1,9.8625445E-1,-2.2094464E-1,-1.5035032E-1,-1.4744891E-1,-9.585246E-2,-4.4267613E-2,3.7541907E-2,9.208617E-2,-5.0511677E-5,1.0158403E-1,2.0523016E-1,4.571215E-2,2.4247007E-1,2.9314095E-1,3.9747828E-1,4.2809284E-1,5.030495E-1,5.6975085E-1,6.691852E-1],"categories":[],"categories_nodes":[],"categories_segments":[],"categories_sizes":[],"default_left":[0,0,0,0,0,0,0,0,0,0,0,0,0,0,0,0,0,0,0,0,0,0,0,0,0,0,0,0,0,0,0,0,0,0,0,0,0,0,0,0,0,0,0,0,0,0,0],"id":14,"left_children":[1,3,5,7,9,11,13,-1,15,17,19,21,23,25,27,-1,-1,-1,29,31,33,35,37,39,41,43,45,-1,-1,-1,-1,-1,-1,-1,-1,-1,-1,-1,-1,-1,-1,-1,-1,-1,-1,-1,-1],"loss_changes":[3.3946352E6,5.63877E5,3.0497688E5,2.7116125E4,2.3049977E4,3.735117E4,1.02421E5,0E0,3.7619375E3,1.3113359E3,7.758418E3,6.7736914E3,8.1235E3,2.18325E4,1.311875E3,0E0,0E0,0E0,3.0628906E1,2.1148672E3,1.1700753E3,1.456366E3,1.7222773E3,5.542969E2,1.15515625E2,1.574375E2,5.346875E2,0E0,0E0,0E0,0E0,0E0,0E0,0E0,0E0,0E0,0E0,0E0,0E0,0E0,0E0,0E0,0E0,0E0,0E0,0E0,0E0],"parents":[2147483647,0,0,1,1,2,2,3,3,4,4,5,5,6,6,8,8,9,9,10,10,11,11,12,12,13,13,14,14,18,18,19,19,20,20,21,21,22,22,23,23,24,24,25,25,26,26],"right_children":[2,4,6,8,10,12,14,-1,16,18,20,22,24,26,28,-1,-1,-1,30,32,34,36,38,40,42,44,46,-1,-1,-1,-1,-1,-1,-1,-1,-1,-1,-1,-1,-1,-1,-1,-1,-1,-1,-1,-1],"split_conditions":[4.0490046E-1,1.7704867E-1,6.117912E-1,8.075561E-2,3.0168954E-1,5.1208955E-1,7.887766E-1,-6.7619663E-1,1.15309626E-1,2.6131406E-1,3.630285E-1,4.7755623E-1,5.4633856E-1,6.8246835E-1,7.766259E-1,-5.7061285E-1,-4.7621256E-1,-2.8578457E-1,3.1669196E-1,3.2634047E-1,3.5753593E-1,5.350537E-1,4.4738197E-1,1.2816775E-1,5.3847224E-1,1.5715678E-1,7.0209616E-1,7.199605E-1,9.8625445E-1,-2.2094464E-1,-1.5035032E-1,-1.4744891E-1,-9.585246E-2,-4.4267613E-2,3.7541907E-2,9.208617E-2,-5.0511677E-5,1.0158403E-1,2.0523016E-1,4.571215E-2,2.4247007E-1,2.9314095E-1,3.9747828E-1,4.2809284E-1,5.030495E-1,5.6975085E-1,6.691852E-1],"split_indices":[0,14,2,21,29,2,3,0,14,14,2,17,17,3,17,0,0,0,17,3,13,14,2,8,15,7,17,0,0,0,0,0,0,0,0,0,0,0,0,0,0,0,0,0,0,0,0],"split_type":[0,0,0,0,0,0,0,0,0,0,0,0,0,0,0,0,0,0,0,0,0,0,0,0,0,0,0,0,0,0,0,0,0,0,0,0,0,0,0,0,0,0,0,0,0,0,0],"sum_hessian":[2.002E3,1.105E3,8.97E2,5.35E2,5.7E2,3.57E2,5.4E2,2.45E2,2.9E2,1.64E2,4.06E2,1.74E2,1.83E2,4.57E2,8.3E1,1.43E2,1.47E2,6E1,1.04E2,3.38E2,6.8E1,7E1,1.04E2,6.2E1,1.21E2,2.58E2,1.99E2,1.7E1,6.6E1,9.4E1,1E1,1.67E2,1.71E2,3.5E1,3.3E1,4.1E1,2.9E1,2.4E1,8E1,2E0,6E1,1.6E1,1.05E2,5.7E1,2.01E2,7.1E1,1.28E2],"tree_param":{"num_deleted":"0","num_feature":"31","num_nodes":"47","size_leaf_vector":"1"}},{"base_weights":[7.266763E-2,-3.5039036E1,4.692911E1,-5.8854527E1,-1.3384323E1,2.8223297E1,6.3280987E1,-6.466694E1,-4.9906975E1,-1.9893642E1,-6.873794E0,1.7247562E1,4.050152E1,5.6235283E1,8.953688E1,-6.903426E-1,-5.9960634E-1,-5.1583624E-1,-4.0265512E-1,-2.5518747E1,-1.6106382E1,-9.452253E0,2.1381438E0,8.755059E0,2.2252378E1,2.3389366E1,4.205685E-1,5.0285876E-1,6.262125E-1,7.211396E-1,9.6099776E-1,-2.8881577E-1,-2.2752173E-1,-1.73581E-1,-1.3698833E-1,-8.0763616E-2,-1.258005E-1,-3.6789767E-2,5.1930938E-2,2.9002585E-2,1.314675E-1,1.05394036E-1,2.3423694E-1,2.6825312E-1,1.4157839E-1],"categories":[],"categories_nodes":[],"categories_segments":[],"categories_sizes":[],"default_left":[0,0,0,0,0,0,0,0,0,0,0,0,0,0,0,0,0,0,0,0,0,0,0,0,0,0,0,0,0,0,0,0,0,0,0,0,0,0,0,0,0,0,0,0,0],"id":15,"left_children":[1,3,5,7,9,11,13,15,17,19,21,23,25,27,29,-1,-1,-1,-1,31,33,35,37,39,41,43,-1,-1,-1,-1,-1,-1,-1,-1,-1,-1,-1,-1,-1,-1,-1,-1,-1,-1,-1],"loss_changes":[3.2953538E6,5.89709E5,2.60655E5,2.51165E4,2.5333102E4,5.347597E4,7.9506E4,2.58175E3,1.463125E3,5.9801016E3,7.037759E3,8.900914E3,4.0465625E3,1.064225E4,3.9325625E3,0E0,0E0,0E0,0E0,4.500078E2,3.106875E2,9.0972266E2,1.227534E3,2.044581E3,1.5915547E3,1.911543E2,0E0,0E0,0E0,0E0,0E0,0E0,0E0,0E0,0E0,0E0,0E0,0E0,0E0,0E0,0E0,0E0,0E0,0E0,0E0],"parents":[2147483647,0,0,1,1,2,2,3,3,4,4,5,5,6,6,7,7,8,8,9,9,10,10,11,11,12,12,13,13,14,14,19,19,20,20,21,21,22,22,23,23,24,24,25,25],"right_children":[2,4,6,8,10,12,14,16,18,20,22,24,26,28,30,-1,-1,-1,-1,32,34,36,38,40,42,44,-1,-1,-1,-1,-1,-1,-1,-1,-1,-1,-1,-1,-1,-1,-1,-1,-1,-1,-1],"split_conditions":[4.162649E-1,1.8559334E-1,6.3525933E-1,9.285816E-2,3.229457E-1,5.56983E-1,7.683366E-1,5.3359874E-2,1.670032E-1,2.8470865E-1,3.7243998E-1,4.661272E-1,4.8833102E-1,6.860247E-1,7.766259E-1,-6.903426E-1,-5.9960634E-1,-5.1583624E-1,-4.0265512E-1,2.6275977E-1,3.2258868E-1,4.7651133E-1,3.7971604E-1,5.488399E-1,4.7163874E-1,1.044767E-1,4.205685E-1,5.0285876E-1,6.262125E-1,7.211396E-1,9.6099776E-1,-2.8881577E-1,-2.2752173E-1,-1.73581E-1,-1.3698833E-1,-8.0763616E-2,-1.258005E-1,-3.6789767E-2,5.1930938E-2,2.9002585E-2,1.314675E-1,1.05394036E-1,2.3423694E-1,2.6825312E-1,1.4157839E-1],"split_indices":[2,0,2,1,1,1,2,0,17,20,2,2,17,3,17,0,0,0,0,30,17,9,30,25,12,4,0,0,0,0,0,0,0,0,0,0,0,0,0,0,0,0,0,0,0],"split_type":[0,0,0,0,0,0,0,0,0,0,0,0,0,0,0,0,0,0,0,0,0,0,0,0,0,0,0,0,0,0,0,0,0,0,0,0,0,0,0,0,0,0,0,0,0],"sum_hessian":[2.001E3,1.144E3,8.57E2,5.44E2,6E2,4.01E2,4.56E2,3.26E2,2.18E2,2.99E2,3.01E2,2.13E2,1.88E2,3.62E2,9.4E1,1.62E2,1.64E2,1.82E2,3.6E1,1.18E2,1.81E2,2.34E2,6.7E1,8E1,1.33E2,1.7E1,1.71E2,1.92E2,1.7E2,2.9E1,6.5E1,4.9E1,6.9E1,1.15E2,6.6E1,1.65E2,6.9E1,2.3E1,4.4E1,3.5E1,4.5E1,1.3E1,1.2E2,1.1E1,6E0],"tree_param":{"num_deleted":"0","num_feature":"31","num_nodes":"45","size_leaf_vector":"1"}},{"base_weights":[8.317008E-1,-3.4801067E1,4.6851223E1,-5.7700226E1,-1.3545275E1,2.3496792E1,6.0080887E1,-6.2986465E1,-4.6744183E1,-1.9352407E1,-7.076498E0,1.4317556E1,3.3249897E1,5.2947517E1,8.744101E1,-6.7428786E-1,-5.784625E-1,-4.9023932E-1,-3.9548525E-1,-2.463584E1,-1.5914988E1,-9.456539E0,1.9911817E0,8.381135E0,1.940706E1,2.2772457E1,3.7483032E1,4.7356873E1,6.0478985E1,6.702933E-1,9.3136144E-1,-2.7186242E-1,-2.2288725E-1,-1.9246668E-1,-1.4817213E-1,-1.0074835E-1,-2.4504393E-2,4.2882025E-2,-6.289906E-2,3.5367478E-2,1.2548481E-1,1.0063031E-1,2.0489883E-1,7.120676E-2,2.4507536E-1,2.8417012E-1,3.901452E-1,4.4987786E-1,5.1368445E-1,5.512031E-1,6.428384E-1],"categories":[],"categories_nodes":[],"categories_segments":[],"categories_sizes":[],"default_left":[0,0,0,0,0,0,0,0,0,0,0,0,0,0,0,0,0,0,0,0,0,0,0,0,0,0,0,0,0,0,0,0,0,0,0,0,0,0,0,0,0,0,0,0,0,0,0,0,0,0,0],"id":16,"left_children":[1,3,5,7,9,11,13,15,17,19,21,23,25,27,29,-1,-1,-1,-1,31,33,35,37,39,41,43,45,47,49,-1,-1,-1,-1,-1,-1,-1,-1,-1,-1,-1,-1,-1,-1,-1,-1,-1,-1,-1,-1,-1,-1],"loss_changes":[3.235322E6,5.40473E5,2.6461262E5,2.8041E4,2.1575648E4,2.754561E4,1.02518375E5,4.274125E3,9.81125E2,5.1289844E3,5.9537275E3,4.7621367E3,5.843625E3,1.557825E4,6.776875E3,0E0,0E0,0E0,0E0,1.0040625E2,3.987578E2,9.1965625E2,1.1302386E3,1.5101133E3,6.740703E2,1.0747148E3,3.6309375E2,1.22E2,1.878125E2,0E0,0E0,0E0,0E0,0E0,0E0,0E0,0E0,0E0,0E0,0E0,0E0,0E0,0E0,0E0,0E0,0E0,0E0,0E0,0E0,0E0,0E0],"parents":[2147483647,0,0,1,1,2,2,3,3,4,4,5,5,6,6,7,7,8,8,9,9,10,10,11,11,12,12,13,13,14,14,19,19,20,20,21,21,22,22,23,23,24,24,25,25,26,26,27,27,28,28],"right_children":[2,4,6,8,10,12,14,16,18,20,22,24,26,28,30,-1,-1,-1,-1,32,34,36,38,40,42,44,46,48,50,-1,-1,-1,-1,-1,-1,-1,-1,-1,-1,-1,-1,-1,-1,-1,-1,-1,-1,-1,-1,-1,-1],"split_conditions":[4.257287E-1,1.8172266E-1,6.064014E-1,1.0945515E-1,3.229457E-1,5.205674E-1,7.7830744E-1,6.2353726E-2,1.670032E-1,2.8470865E-1,3.7243998E-1,4.661272E-1,5.072549E-1,6.993798E-1,7.6957446E-1,-6.7428786E-1,-5.784625E-1,-4.9023932E-1,-3.9548525E-1,2.6131406E-1,2.9623938E-1,3.953913E-1,6.815411E-1,5.663905E-1,4.4510698E-1,5.0272346E-1,5.3847224E-1,6.594086E-1,7.133803E-1,6.702933E-1,9.3136144E-1,-2.7186242E-1,-2.2288725E-1,-1.9246668E-1,-1.4817213E-1,-1.0074835E-1,-2.4504393E-2,4.2882025E-2,-6.289906E-2,3.5367478E-2,1.2548481E-1,1.0063031E-1,2.0489883E-1,7.120676E-2,2.4507536E-1,2.8417012E-1,3.901452E-1,4.4987786E-1,5.1368445E-1,5.512031E-1,6.428384E-1],"split_indices":[1,14,3,17,1,0,15,17,17,20,2,2,17,15,13,0,0,0,0,14,30,17,12,25,12,10,15,2,17,0,0,0,0,0,0,0,0,0,0,0,0,0,0,0,0,0,0,0,0,0,0],"split_type":[0,0,0,0,0,0,0,0,0,0,0,0,0,0,0,0,0,0,0,0,0,0,0,0,0,0,0,0,0,0,0,0,0,0,0,0,0,0,0,0,0,0,0,0,0,0,0,0,0,0,0],"sum_hessian":[1.971E3,1.111E3,8.6E2,5.34E2,5.77E2,3.12E2,5.48E2,3.57E2,1.77E2,3.03E2,2.74E2,1.62E2,1.5E2,4.37E2,1.11E2,1.85E2,1.72E2,1.3E2,4.7E1,1.17E2,1.86E2,2.17E2,5.7E1,7.6E1,8.6E1,4.5E1,1.05E2,2.55E2,1.82E2,2.7E1,8.4E1,5.1E1,6.6E1,4.2E1,1.44E2,1.99E2,1.8E1,4.5E1,1.2E1,3.6E1,4E1,1E1,7.6E1,5E0,4E1,1.8E1,8.7E1,1.68E2,8.7E1,8.2E1,1E2],"tree_param":{"num_deleted":"0","num_feature":"31","num_nodes":"51","size_leaf_vector":"1"}},{"base_weights":[2.9583475E-1,-3.4488644E1,4.6023853E1,-5.7539013E1,-1.3528578E1,2.3591444E1,5.9197613E1,-6.2881084E1,-4.7746944E1,-2.3722776E1,-9.647485E0,1.4470386E1,3.2970554E1,5.2336758E1,8.397852E1,-6.709207E-1,-5.787585E-1,-4.9888733E-1,-4.0237612E-1,-2.7718565E-1,-2.0900017E1,-1.1919132E1,-1.7561004E-1,7.2731485E0,1.8376734E1,2.3585325E1,3.7570864E-1,4.6923068E-1,5.941463E-1,6.5473634E-1,9.0937686E-1,-2.1416694E-1,-1.4159912E-1,-1.4224741E-1,-9.391614E-2,-6.1808832E-2,3.453529E-2,3.285964E-2,1.256428E-1,1.1719065E-1,2.0101213E-1,1.1761362E-1,2.5688753E-1],"categories":[],"categories_nodes":[],"categories_segments":[],"categories_sizes":[],"default_left":[0,0,0,0,0,0,0,0,0,0,0,0,0,0,0,0,0,0,0,0,0,0,0,0,0,0,0,0,0,0,0,0,0,0,0,0,0,0,0,0,0,0,0],"id":17,"left_children":[1,3,5,7,9,11,13,15,17,19,21,23,25,27,29,-1,-1,-1,-1,-1,31,33,35,37,39,41,-1,-1,-1,-1,-1,-1,-1,-1,-1,-1,-1,-1,-1,-1,-1,-1,-1],"loss_changes":[3.147844E6,5.422679E5,2.5127238E5,2.49835E4,2.3114273E4,2.6726984E4,8.7074625E4,3.346375E3,1.0966562E3,1.2479062E3,9.228598E3,4.449074E3,5.8491875E3,1.34585E4,8.8555E3,0E0,0E0,0E0,0E0,0E0,4.1507812E1,1.8827148E3,1.8520396E3,1.2034209E3,9.699375E2,1.0408926E3,0E0,0E0,0E0,0E0,0E0,0E0,0E0,0E0,0E0,0E0,0E0,0E0,0E0,0E0,0E0,0E0,0E0],"parents":[2147483647,0,0,1,1,2,2,3,3,4,4,5,5,6,6,7,7,8,8,9,9,10,10,11,11,12,12,13,13,14,14,20,20,21,21,22,22,23,23,24,24,25,25],"right_children":[2,4,6,8,10,12,14,16,18,20,22,24,26,28,30,-1,-1,-1,-1,-1,32,34,36,38,40,42,-1,-1,-1,-1,-1,-1,-1,-1,-1,-1,-1,-1,-1,-1,-1,-1,-1],"split_conditions":[4.1970837E-1,1.7641279E-1,6.064014E-1,9.665664E-2,3.0168954E-1,5.1276165E-1,7.594669E-1,6.237496E-2,1.5989769E-1,2.6131406E-1,3.6827335E-1,4.7755623E-1,5.599068E-1,6.993798E-1,7.665193E-1,-6.709207E-1,-5.787585E-1,-4.9888733E-1,-4.0237612E-1,-2.7718565E-1,3.2002625E-1,3.2712454E-1,3.588338E-1,6.0376173E-1,4.5498282E-1,2.3489104E-1,3.7570864E-1,4.6923068E-1,5.941463E-1,6.5473634E-1,9.0937686E-1,-2.1416694E-1,-1.4159912E-1,-1.4224741E-1,-9.391614E-2,-6.1808832E-2,3.453529E-2,3.285964E-2,1.256428E-1,1.1719065E-1,2.0101213E-1,1.1761362E-1,2.5688753E-1],"split_indices":[3,13,3,17,29,3,2,1,17,14,0,17,17,15,13,0,0,0,0,0,17,3,17,27,1,11,0,0,0,0,0,0,0,0,0,0,0,0,0,0,0,0,0],"split_type":[0,0,0,0,0,0,0,0,0,0,0,0,0,0,0,0,0,0,0,0,0,0,0,0,0,0,0,0,0,0,0,0,0,0,0,0,0,0,0,0,0,0,0],"sum_hessian":[1.977E3,1.123E3,8.54E2,5.34E2,5.89E2,3.17E2,5.37E2,3.42E2,1.92E2,1.61E2,4.28E2,1.62E2,1.55E2,4.23E2,1.14E2,1.79E2,1.63E2,1.45E2,4.7E1,6.3E1,9.8E1,3.45E2,8.3E1,5.8E1,1.04E2,5.3E1,1.02E2,2.44E2,1.79E2,3.4E1,8E1,8.9E1,9E0,1.78E2,1.67E2,3.1E1,5.2E1,3.4E1,2.4E1,2.3E1,8.1E1,9E0,4.4E1],"tree_param":{"num_deleted":"0","num_feature":"31","num_nodes":"43","size_leaf_vector":"1"}},{"base_weights":[1.4107029E-1,-3.4857143E1,4.5247055E1,-5.698955E1,-1.3433937E1,2.73151E1,6.0893425E1,-6.1503464E1,-4.6133854E1,-2.308077E1,-9.626639E0,1.5135226E1,3.6687664E1,5.540903E1,9.0702015E-1,-6.596258E-1,-5.668134E-1,-4.809369E-1,-3.915591E-1,-2.7076086E-1,-2.0774054E1,-1.1671131E1,-2.2992371E-1,2.2811072E0,1.7794264E1,2.5380314E1,3.9514835E1,5.0130573E1,6.453492E-1,-2.1361253E-1,-1.434529E-1,-1.392991E-1,-8.785734E-2,-5.8868904E-2,3.672207E-2,5.012571E-2,-6.539857E-2,1.15514114E-1,2.0217766E-1,2.1857326E-1,3.556361E-1,3.3897215E-1,4.1206974E-1,4.4619724E-1,5.260895E-1],"categories":[],"categories_nodes":[],"categories_segments":[],"categories_sizes":[],"default_left":[0,0,0,0,0,0,0,0,0,0,0,0,0,0,0,0,0,0,0,0,0,0,0,0,0,0,0,0,0,0,0,0,0,0,0,0,0,0,0,0,0,0,0,0,0],"id":18,"left_children":[1,3,5,7,9,11,13,15,17,19,21,23,25,27,-1,-1,-1,-1,-1,-1,29,31,33,35,37,39,41,43,-1,-1,-1,-1,-1,-1,-1,-1,-1,-1,-1,-1,-1,-1,-1,-1,-1],"loss_changes":[3.1651495E6,5.345465E5,2.44116E5,2.43585E4,2.089661E4,4.6248938E4,7.132025E4,4.6255E3,4.006875E2,9.3052344E2,7.950879E3,6.1117344E3,6.3816562E3,1.58885E4,0E0,0E0,0E0,0E0,0E0,0E0,9.7484375E1,2.0935547E3,1.6771847E3,8.037942E2,2.0207656E3,9.805801E2,3.4275E2,1.1490625E3,0E0,0E0,0E0,0E0,0E0,0E0,0E0,0E0,0E0,0E0,0E0,0E0,0E0,0E0,0E0,0E0,0E0],"parents":[2147483647,0,0,1,1,2,2,3,3,4,4,5,5,6,6,7,7,8,8,9,9,10,10,11,11,12,12,13,13,20,20,21,21,22,22,23,23,24,24,25,25,26,26,27,27],"right_children":[2,4,6,8,10,12,14,16,18,20,22,24,26,28,-1,-1,-1,-1,-1,-1,30,32,34,36,38,40,42,44,-1,-1,-1,-1,-1,-1,-1,-1,-1,-1,-1,-1,-1,-1,-1,-1,-1],"split_conditions":[4.162649E-1,1.8559334E-1,6.3295954E-1,1.0945515E-1,3.0168954E-1,5.2867764E-1,8.314268E-1,6.2353726E-2,1.4873843E-1,2.6131406E-1,3.6827335E-1,4.6475214E-1,5.576432E-1,7.1295404E-1,9.0702015E-1,-6.596258E-1,-5.668134E-1,-4.809369E-1,-3.915591E-1,-2.7076086E-1,3.2002625E-1,3.287331E-1,3.8501936E-1,4.9039534E-1,4.38131E-1,6.6893536E-1,6.017815E-1,6.3303983E-1,6.453492E-1,-2.1361253E-1,-1.434529E-1,-1.392991E-1,-8.785734E-2,-5.8868904E-2,3.672207E-2,5.012571E-2,-6.539857E-2,1.15514114E-1,2.0217766E-1,2.1857326E-1,3.556361E-1,3.3897215E-1,4.1206974E-1,4.4619724E-1,5.260895E-1],"split_indices":[2,0,2,17,29,1,16,17,0,14,0,27,17,1,0,0,0,0,0,0,17,3,17,10,30,14,22,17,0,0,0,0,0,0,0,0,0,0,0,0,0,0,0,0,0],"split_type":[0,0,0,0,0,0,0,0,0,0,0,0,0,0,0,0,0,0,0,0,0,0,0,0,0,0,0,0,0,0,0,0,0,0,0,0,0,0,0,0,0,0,0,0,0],"sum_hessian":[2.003E3,1.128E3,8.75E2,5.54E2,5.74E2,4.09E2,4.66E2,3.88E2,1.66E2,1.61E2,4.13E2,1.79E2,2.3E2,3.96E2,7E1,1.95E2,1.93E2,1.25E2,4.1E1,5.5E1,1.06E2,3.39E2,7.4E1,3.1E1,1.48E2,4.8E1,1.82E2,2.55E2,1.41E2,9.5E1,1.1E1,1.88E2,1.51E2,3E1,4.4E1,2.4E1,7E0,4.3E1,1.05E2,3.8E1,1E1,4.7E1,1.35E2,8.5E1,1.7E2],"tree_param":{"num_deleted":"0","num_feature":"31","num_nodes":"45","size_leaf_vector":"1"}},{"base_weights":[3.1699696E-1,-3.408119E1,4.467323E1,-5.6540276E1,-1.3374235E1,2.2837784E1,5.831338E1,-6.2485676E1,-4.8171932E1,-1.900328E1,-7.1726832E0,1.4783047E1,3.4089188E1,5.0768223E1,8.107968E1,-6.621721E-1,-5.789753E-1,-5.005891E-1,-3.9427733E-1,-2.421519E1,-1.539635E1,-9.386833E0,2.6139468E-1,8.636969E0,2.0196012E1,2.189083E1,3.72457E-1,4.646495E-1,5.771665E-1,7.138349E-1,9.635885E-1,-2.6992053E-1,-2.1650806E-1,-1.6078734E-1,-1.12182125E-1,-9.9371724E-2,-2.811614E-2,7.06987E-2,-3.386427E-2,3.337953E-2,1.285275E-1,1.8959455E-1,2.6791057E-1,2.2255993E-1,5.4679487E-2],"categories":[],"categories_nodes":[],"categories_segments":[],"categories_sizes":[],"default_left":[0,0,0,0,0,0,0,0,0,0,0,0,0,0,0,0,0,0,0,0,0,0,0,0,0,0,0,0,0,0,0,0,0,0,0,0,0,0,0,0,0,0,0,0,0],"id":19,"left_children":[1,3,5,7,9,11,13,15,17,19,21,23,25,27,29,-1,-1,-1,-1,31,33,35,37,39,41,43,-1,-1,-1,-1,-1,-1,-1,-1,-1,-1,-1,-1,-1,-1,-1,-1,-1,-1,-1],"loss_changes":[3.028658E6,5.1918012E5,2.5689462E5,2.3657625E4,2.021554E4,2.9856125E4,8.7439875E4,1.473625E3,1.7718125E3,5.3608594E3,4.594841E3,6.379461E3,4.5367656E3,9.3683125E3,1.252925E4,0E0,0E0,0E0,0E0,2.9147656E2,3.413789E2,7.500586E2,1.6382885E3,2.0570107E3,3.401914E2,6.421289E1,0E0,0E0,0E0,0E0,0E0,0E0,0E0,0E0,0E0,0E0,0E0,0E0,0E0,0E0,0E0,0E0,0E0,0E0,0E0],"parents":[2147483647,0,0,1,1,2,2,3,3,4,4,5,5,6,6,7,7,8,8,9,9,10,10,11,11,12,12,13,13,14,14,19,19,20,20,21,21,22,22,23,23,24,24,25,25],"right_children":[2,4,6,8,10,12,14,16,18,20,22,24,26,28,30,-1,-1,-1,-1,32,34,36,38,40,42,44,-1,-1,-1,-1,-1,-1,-1,-1,-1,-1,-1,-1,-1,-1,-1,-1,-1,-1,-1],"split_conditions":[4.0178064E-1,1.7641279E-1,6.0846376E-1,8.796306E-2,3.229457E-1,5.576432E-1,7.500486E-1,5.3359874E-2,1.5989769E-1,2.8470865E-1,3.6677754E-1,4.7072434E-1,5.072253E-1,7.004605E-1,8.692084E-1,-6.621721E-1,-5.789753E-1,-5.005891E-1,-3.9427733E-1,2.6131406E-1,3.4547842E-1,4.0299252E-1,6.3631535E-1,5.488399E-1,4.316181E-1,5.902623E-1,3.72457E-1,4.646495E-1,5.771665E-1,7.138349E-1,9.635885E-1,-2.6992053E-1,-2.1650806E-1,-1.6078734E-1,-1.12182125E-1,-9.9371724E-2,-2.811614E-2,7.06987E-2,-3.386427E-2,3.337953E-2,1.285275E-1,1.8959455E-1,2.6791057E-1,2.2255993E-1,5.4679487E-2],"split_indices":[3,13,3,2,1,17,2,0,17,20,2,2,29,15,0,0,0,0,0,14,17,17,27,25,23,26,0,0,0,0,0,0,0,0,0,0,0,0,0,0,0,0,0,0,0],"split_type":[0,0,0,0,0,0,0,0,0,0,0,0,0,0,0,0,0,0,0,0,0,0,0,0,0,0,0,0,0,0,0,0,0,0,0,0,0,0,0,0,0,0,0,0,0],"sum_hessian":[1.983E3,1.117E3,8.66E2,5.35E2,5.82E2,3.34E2,5.32E2,3.09E2,2.26E2,3.04E2,2.78E2,1.96E2,1.38E2,4.02E2,1.3E2,1.63E2,1.46E2,1.82E2,4.4E1,1.22E2,1.82E2,2.14E2,6.4E1,9.3E1,1.03E2,3E1,1.08E2,2.53E2,1.49E2,8.3E1,4.7E1,5.4E1,6.8E1,1.54E2,2.8E1,1.97E2,1.7E1,2.2E1,4.2E1,4.2E1,5.1E1,9E1,1.3E1,2.9E1,1E0],"tree_param":{"num_deleted":"0","num_feature":"31","num_nodes":"45","size_leaf_vector":"1"}},{"base_weights":[-4.6002558E-1,-3.3303524E1,4.4267666E1,-5.583457E1,-1.2644697E1,2.2455284E1,5.749355E1,-6.050018E1,-4.4885014E1,-1.8679115E1,-6.3870983E0,1.5004758E1,3.419648E1,5.088927E1,8.202424E1,-6.4586645E-1,-5.5126584E-1,-4.7083586E-1,-3.8129526E-1,-2.3795233E1,-1.512131E1,-8.816667E0,2.3604107E0,5.0842304E0,1.8277706E1,2.0992834E1,3.6511528E-1,4.6125526E1,5.868586E-1,6.771424E-1,9.185226E-1,-2.6025793E-1,-2.1406916E-1,-1.8252355E-1,-1.4187758E-1,-3.76918E-2,-9.8955534E-2,-2.7833134E-2,5.992817E-2,-1.13594815E-1,6.7253865E-2,1.23342834E-1,2.1126074E-1,2.1498415E-1,5.4406088E-2,4.4633552E-1,5.24609E-1],"categories":[],"categories_nodes":[],"categories_segments":[],"categories_sizes":[],"default_left":[0,0,0,0,0,0,0,0,0,0,0,0,0,0,0,0,0,0,0,0,0,0,0,0,0,0,0,0,0,0,0,0,0,0,0,0,0,0,0,0,0,0,0,0,0,0,0],"id":20,"left_children":[1,3,5,7,9,11,13,15,17,19,21,23,25,27,29,-1,-1,-1,-1,31,33,35,37,39,41,43,-1,45,-1,-1,-1,-1,-1,-1,-1,-1,-1,-1,-1,-1,-1,-1,-1,-1,-1,-1,-1],"loss_changes":[2.9630058E6,5.406299E5,2.4507775E5,2.56885E4,2.283936E4,2.7829797E4,8.1851625E4,4.937625E3,7.29625E2,5.2646484E3,6.3966104E3,6.4009453E3,3.0544219E3,1.29295E4,9.39125E3,0E0,0E0,0E0,0E0,1.0877344E2,2.8179297E2,1.2424336E3,1.2498304E3,1.4527183E3,2.2787852E3,4.815625E1,0E0,1.728125E2,0E0,0E0,0E0,0E0,0E0,0E0,0E0,0E0,0E0,0E0,0E0,0E0,0E0,0E0,0E0,0E0,0E0,0E0,0E0],"parents":[2147483647,0,0,1,1,2,2,3,3,4,4,5,5,6,6,7,7,8,8,9,9,10,10,11,11,12,12,13,13,14,14,19,19,20,20,21,21,22,22,23,23,24,24,25,25,27,27],"right_children":[2,4,6,8,10,12,14,16,18,20,22,24,26,28,30,-1,-1,-1,-1,32,34,36,38,40,42,44,-1,46,-1,-1,-1,-1,-1,-1,-1,-1,-1,-1,-1,-1,-1,-1,-1,-1,-1,-1,-1],"split_conditions":[4.257287E-1,2.0568804E-1,6.064014E-1,1.0755733E-1,3.2494414E-1,5.599068E-1,7.560379E-1,6.830966E-2,1.670032E-1,2.8470865E-1,3.7243998E-1,5.114746E-1,5.1569295E-1,6.8246835E-1,7.819473E-1,-6.4586645E-1,-5.5126584E-1,-4.7083586E-1,-3.8129526E-1,2.6131406E-1,2.9623938E-1,2.0936573E-1,3.8251472E-1,4.5693862E-1,4.4422406E-1,8.676319E-1,3.6511528E-1,6.9635785E-1,5.868586E-1,6.771424E-1,9.185226E-1,-2.6025793E-1,-2.1406916E-1,-1.8252355E-1,-1.4187758E-1,-3.76918E-2,-9.8955534E-2,-2.7833134E-2,5.992817E-2,-1.13594815E-1,6.7253865E-2,1.23342834E-1,2.1126074E-1,2.1498415E-1,5.4406088E-2,4.4633552E-1,5.24609E-1],"split_indices":[1,16,3,29,1,17,2,1,17,20,2,12,0,3,13,0,0,0,0,14,30,6,30,16,30,19,0,17,0,0,0,0,0,0,0,0,0,0,0,0,0,0,0,0,0,0,0],"split_type":[0,0,0,0,0,0,0,0,0,0,0,0,0,0,0,0,0,0,0,0,0,0,0,0,0,0,0,0,0,0,0,0,0,0,0,0,0,0,0,0,0,0,0,0,0,0,0],"sum_hessian":[2.015E3,1.162E3,8.53E2,5.55E2,6.07E2,3.23E2,5.3E2,3.86E2,1.69E2,3.08E2,2.99E2,1.99E2,1.24E2,4.2E2,1.1E2,2.13E2,1.73E2,1.23E2,4.6E1,1.24E2,1.84E2,2.34E2,6.5E1,5E1,1.49E2,2E1,1.04E2,2.65E2,1.55E2,4.8E1,6.2E1,5.9E1,6.5E1,3.8E1,1.46E2,4.2E1,1.92E2,2.7E1,3.8E1,4E0,4.6E1,5E1,9.9E1,1.9E1,1E0,2.21E2,4.4E1],"tree_param":{"num_deleted":"0","num_feature":"31","num_nodes":"47","size_leaf_vector":"1"}},{"base_weights":[-5.7787347E-1,-3.3659058E1,4.38573E1,-5.4911625E1,-1.2718651E1,2.6688238E1,5.915723E1,-5.964617E1,-4.442161E1,-1.8812946E1,-6.7895074E0,1.5935652E1,3.6941036E1,5.329723E1,8.65474E1,-6.417197E-1,-5.4762566E-1,-4.6620092E-1,-3.7817127E-1,-2.3549205E-1,-1.5261558E1,-9.316598E0,2.632376E-1,9.986056E0,2.20911E1,2.2373222E1,3.8668587E1,4.8231396E1,6.0405575E1,6.793616E-1,9.18858E-1,-1.7998117E-1,-1.437956E-1,-9.980267E-2,-1.9450469E-2,3.435504E-2,-4.9269054E-2,1.7368533E-2,1.3563357E-1,1.5375876E-1,2.3548417E-1,5.4134063E-2,2.287524E-1,3.5024494E-1,4.11476E-1,3.9760748E-1,4.999679E-1,5.282292E-1,6.356129E-1],"categories":[],"categories_nodes":[],"categories_segments":[],"categories_sizes":[],"default_left":[0,0,0,0,0,0,0,0,0,0,0,0,0,0,0,0,0,0,0,0,0,0,0,0,0,0,0,0,0,0,0,0,0,0,0,0,0,0,0,0,0,0,0,0,0,0,0,0,0],"id":21,"left_children":[1,3,5,7,9,11,13,15,17,19,21,23,25,27,29,-1,-1,-1,-1,-1,31,33,35,37,39,41,43,45,47,-1,-1,-1,-1,-1,-1,-1,-1,-1,-1,-1,-1,-1,-1,-1,-1,-1,-1,-1,-1],"loss_changes":[2.9105435E6,5.04419E5,2.2039038E5,2.531225E4,2.0577031E4,4.3508938E4,6.6973E4,4.995125E3,8.36E2,4.383922E3,5.206746E3,6.9940156E3,4.268875E3,1.041025E4,1.4079375E3,0E0,0E0,0E0,0E0,0E0,1.3703516E2,1.0324277E3,1.3011588E3,2.9864512E3,5.7739453E2,8.0506836E1,1.939375E2,1.3169375E3,2.31875E2,0E0,0E0,0E0,0E0,0E0,0E0,0E0,0E0,0E0,0E0,0E0,0E0,0E0,0E0,0E0,0E0,0E0,0E0,0E0,0E0],"parents":[2147483647,0,0,1,1,2,2,3,3,4,4,5,5,6,6,7,7,8,8,9,9,10,10,11,11,12,12,13,13,14,14,20,20,21,21,22,22,23,23,24,24,25,25,26,26,27,27,28,28],"right_children":[2,4,6,8,10,12,14,16,18,20,22,24,26,28,30,-1,-1,-1,-1,-1,32,34,36,38,40,42,44,46,48,-1,-1,-1,-1,-1,-1,-1,-1,-1,-1,-1,-1,-1,-1,-1,-1,-1,-1,-1,-1],"split_conditions":[4.257287E-1,2.0568804E-1,6.279371E-1,1.09183304E-1,3.222751E-1,5.599068E-1,7.887766E-1,6.500216E-2,1.670032E-1,2.8470865E-1,3.6827335E-1,4.8351124E-1,5.175526E-1,7.0209616E-1,7.766259E-1,-6.417197E-1,-5.4762566E-1,-4.6620092E-1,-3.7817127E-1,-2.3549205E-1,2.9623938E-1,6.927896E-1,6.712906E-1,4.6475214E-1,5.044273E-1,6.608906E-2,6.0188884E-1,1.7197578E-1,7.163401E-1,6.793616E-1,9.18858E-1,-1.7998117E-1,-1.437956E-1,-9.980267E-2,-1.9450469E-2,3.435504E-2,-4.9269054E-2,1.7368533E-2,1.3563357E-1,1.5375876E-1,2.3548417E-1,5.4134063E-2,2.287524E-1,3.5024494E-1,4.11476E-1,3.9760748E-1,4.999679E-1,5.282292E-1,6.356129E-1],"split_indices":[1,16,3,21,1,17,3,17,17,20,0,3,15,17,17,0,0,0,0,0,30,11,12,27,10,4,20,6,29,0,0,0,0,0,0,0,0,0,0,0,0,0,0,0,0,0,0,0,0],"split_type":[0,0,0,0,0,0,0,0,0,0,0,0,0,0,0,0,0,0,0,0,0,0,0,0,0,0,0,0,0,0,0,0,0,0,0,0,0,0,0,0,0,0,0,0,0,0,0,0,0],"sum_hessian":[1.978E3,1.134E3,8.44E2,5.62E2,5.72E2,3.99E2,4.45E2,3.84E2,1.78E2,2.81E2,2.91E2,1.96E2,2.03E2,3.69E2,7.6E1,1.93E2,1.91E2,1.29E2,4.9E1,1.18E2,1.63E2,2.14E2,7.7E1,1.01E2,9.5E1,2.3E1,1.8E2,2.2E2,1.49E2,2E1,5.6E1,3.5E1,1.28E2,1.96E2,1.8E1,4.8E1,2.9E1,3.1E1,7E1,1.9E1,7.6E1,1E0,2.2E1,7.9E1,1.01E2,4.2E1,1.78E2,4.9E1,1E2],"tree_param":{"num_deleted":"0","num_feature":"31","num_nodes":"49","size_leaf_vector":"1"}},{"base_weights":[1.0695288E-1,-3.129281E1,4.5956722E1,-5.471113E1,-1.0914919E1,3.5233265E1,6.668538E1,-5.939061E1,-4.401186E1,-1.7853743E1,-3.53226E0,2.0440998E1,4.3191853E1,5.8666035E1,8.598162E1,-6.39237E-1,-5.483191E-1,-4.6030745E-1,-3.6978614E-1,-2.3403677E1,-1.4430365E1,-7.9204926E0,3.7236428E0,1.045387E1,2.3330603E1,3.923757E1,4.6681327E-1,5.4251283E-1,6.316381E1,6.642171E-1,9.074256E-1,-2.4224512E-1,-1.8571493E-1,-1.6035737E-1,-1.2616472E-1,-1.100131E-1,-6.354508E-2,-1.7635357E-3,7.9053596E-2,4.773218E-2,1.7031991E-1,1.9107106E-1,2.8833333E-1,2.1954076E-1,3.9852667E-1,3.578462E-1,6.4339525E-1],"categories":[],"categories_nodes":[],"categories_segments":[],"categories_sizes":[],"default_left":[0,0,0,0,0,0,0,0,0,0,0,0,0,0,0,0,0,0,0,0,0,0,0,0,0,0,0,0,0,0,0,0,0,0,0,0,0,0,0,0,0,0,0,0,0,0,0],"id":22,"left_children":[1,3,5,7,9,11,13,15,17,19,21,23,25,27,29,-1,-1,-1,-1,31,33,35,37,39,41,43,-1,-1,45,-1,-1,-1,-1,-1,-1,-1,-1,-1,-1,-1,-1,-1,-1,-1,-1,-1,-1],"loss_changes":[2.8476695E6,5.596544E5,1.7636588E5,2.4722625E4,3.2158703E4,6.1747125E4,3.720075E4,4.285625E3,7.1171875E2,5.818117E3,9.772714E3,5.1815703E3,2.9288125E3,4.65125E2,1.236375E3,0E0,0E0,0E0,0E0,3.4015625E1,3.888164E2,8.5157324E2,1.8932012E3,1.5628955E3,2.8189844E3,9.110781E2,0E0,0E0,6.2690625E2,0E0,0E0,0E0,0E0,0E0,0E0,0E0,0E0,0E0,0E0,0E0,0E0,0E0,0E0,0E0,0E0,0E0,0E0],"parents":[2147483647,0,0,1,1,2,2,3,3,4,4,5,5,6,6,7,7,8,8,9,9,10,10,11,11,12,12,13,13,14,14,19,19,20,20,21,21,22,22,23,23,24,24,25,25,28,28],"right_children":[2,4,6,8,10,12,14,16,18,20,22,24,26,28,30,-1,-1,-1,-1,32,34,36,38,40,42,44,-1,-1,46,-1,-1,-1,-1,-1,-1,-1,-1,-1,-1,-1,-1,-1,-1,-1,-1,-1,-1],"split_conditions":[4.5847082E-1,2.0568804E-1,6.8246835E-1,1.0755733E-1,3.2878622E-1,5.7353556E-1,8.146693E-1,6.0576152E-2,1.4873843E-1,2.8470865E-1,3.7243998E-1,4.7447768E-1,6.3525933E-1,7.577249E-1,7.766259E-1,-6.39237E-1,-5.483191E-1,-4.6030745E-1,-3.6978614E-1,3.9998388E-1,3.1837836E-1,4.2190003E-1,4.363719E-1,6.1051065E-1,5.1276165E-1,4.1200173E-1,4.6681327E-1,5.4251283E-1,2.2492494E-1,6.642171E-1,9.074256E-1,-2.4224512E-1,-1.8571493E-1,-1.6035737E-1,-1.2616472E-1,-1.100131E-1,-6.354508E-2,-1.7635357E-3,7.9053596E-2,4.773218E-2,1.7031991E-1,1.9107106E-1,2.8833333E-1,2.1954076E-1,3.9852667E-1,3.578462E-1,6.4339525E-1],"split_indices":[15,16,3,29,1,1,16,1,0,20,2,17,2,30,17,0,0,0,0,23,17,28,17,27,3,17,0,0,11,0,0,0,0,0,0,0,0,0,0,0,0,0,0,0,0,0,0],"split_type":[0,0,0,0,0,0,0,0,0,0,0,0,0,0,0,0,0,0,0,0,0,0,0,0,0,0,0,0,0,0,0,0,0,0,0,0,0,0,0,0,0,0,0,0,0,0,0],"sum_hessian":[1.976E3,1.173E3,8.03E2,5.45E2,6.28E2,5.31E2,2.72E2,3.76E2,1.69E2,3.23E2,3.05E2,1.87E2,3.44E2,1.95E2,7.7E1,1.82E2,1.94E2,1.27E2,4.2E1,1.21E2,2.02E2,1.9E2,1.15E2,4.3E1,1.44E2,1.67E2,1.77E2,1.05E2,9E1,1.8E1,5.9E1,1E2,2.1E1,1.03E2,9.9E1,6.2E1,1.28E2,6E1,5.5E1,2.4E1,1.9E1,8.4E1,6E1,7E0,1.6E2,5E0,8.5E1],"tree_param":{"num_deleted":"0","num_feature":"31","num_nodes":"47","size_leaf_vector":"1"}},{"base_weights":[2.2078833E-1,-3.2899174E1,4.372364E1,-5.4339466E1,-1.2880986E1,2.227999E1,5.6253624E1,-5.8639603E1,-4.384617E1,-1.857971E1,-6.4468975E0,1.27942705E1,3.1343231E1,4.939891E1,8.0205086E1,-6.397529E-1,-5.4690033E-1,-4.559972E-1,-3.7226328E-1,-2.3618258E1,-1.4816286E1,-8.795138E0,1.6525303E0,5.9197683E0,1.6859774E1,2.3486101E1,3.5844746E1,4.5085464E1,5.81359E-1,7.0172507E-1,9.2168075E-1,-2.6537377E-1,-2.1219678E-1,-1.61336E-1,-1.256135E-1,-7.386434E-2,-1.18597336E-1,-3.2157034E-2,5.5282593E-2,9.062625E-2,-4.981791E-3,1.0230093E-1,1.8492599E-1,2.1598448E-1,3.3763906E-1,2.3463352E-1,3.678059E-1,4.2307663E-1,5.002354E-1],"categories":[],"categories_nodes":[],"categories_segments":[],"categories_sizes":[],"default_left":[0,0,0,0,0,0,0,0,0,0,0,0,0,0,0,0,0,0,0,0,0,0,0,0,0,0,0,0,0,0,0,0,0,0,0,0,0,0,0,0,0,0,0,0,0,0,0,0,0],"id":23,"left_children":[1,3,5,7,9,11,13,15,17,19,21,23,25,27,29,-1,-1,-1,-1,31,33,35,37,39,41,43,45,47,-1,-1,-1,-1,-1,-1,-1,-1,-1,-1,-1,-1,-1,-1,-1,-1,-1,-1,-1,-1,-1],"loss_changes":[2.913321E6,4.9201688E5,2.335805E5,2.242675E4,2.169654E4,2.7453719E4,8.6501375E4,4.719875E3,2.1784375E2,5.6231484E3,5.3589883E3,4.371924E3,4.9940156E3,1.362175E4,8.05475E3,0E0,0E0,0E0,0E0,3.68125E2,3.409336E2,8.535293E2,1.2253264E3,1.234927E3,8.933301E2,4.9301172E2,3.3046875E2,1.90275E3,0E0,0E0,0E0,0E0,0E0,0E0,0E0,0E0,0E0,0E0,0E0,0E0,0E0,0E0,0E0,0E0,0E0,0E0,0E0,0E0,0E0],"parents":[2147483647,0,0,1,1,2,2,3,3,4,4,5,5,6,6,7,7,8,8,9,9,10,10,11,11,12,12,13,13,14,14,19,19,20,20,21,21,22,22,23,23,24,24,25,25,26,26,27,27],"right_children":[2,4,6,8,10,12,14,16,18,20,22,24,26,28,30,-1,-1,-1,-1,32,34,36,38,40,42,44,46,48,-1,-1,-1,-1,-1,-1,-1,-1,-1,-1,-1,-1,-1,-1,-1,-1,-1,-1,-1,-1,-1],"split_conditions":[4.162649E-1,1.7641279E-1,6.0846376E-1,1.0945515E-1,3.229457E-1,5.1208955E-1,7.592026E-1,5.121874E-2,1.670032E-1,2.8470865E-1,3.7243998E-1,4.7755623E-1,5.599068E-1,7.0209616E-1,8.6439437E-1,-6.397529E-1,-5.4690033E-1,-4.559972E-1,-3.7226328E-1,2.6275977E-1,3.2258868E-1,4.7651133E-1,3.8251472E-1,5.350537E-1,4.5498282E-1,6.6893536E-1,5.217984E-1,7.055745E-1,5.81359E-1,7.0172507E-1,9.2168075E-1,-2.6537377E-1,-2.1219678E-1,-1.61336E-1,-1.256135E-1,-7.386434E-2,-1.18597336E-1,-3.2157034E-2,5.5282593E-2,9.062625E-2,-4.981791E-3,1.0230093E-1,1.8492599E-1,2.1598448E-1,3.3763906E-1,2.3463352E-1,3.678059E-1,4.2307663E-1,5.002354E-1],"split_indices":[2,13,3,17,1,2,1,0,17,20,2,17,17,17,2,0,0,0,0,30,17,9,30,14,1,14,29,16,0,0,0,0,0,0,0,0,0,0,0,0,0,0,0,0,0,0,0,0,0],"split_type":[0,0,0,0,0,0,0,0,0,0,0,0,0,0,0,0,0,0,0,0,0,0,0,0,0,0,0,0,0,0,0,0,0,0,0,0,0,0,0,0,0,0,0,0,0,0,0,0,0],"sum_hessian":[2.02E3,1.147E3,8.73E2,5.53E2,5.94E2,3.23E2,5.5E2,3.89E2,1.64E2,3.14E2,2.8E2,1.59E2,1.64E2,4.3E2,1.2E2,1.59E2,2.3E2,1.25E2,3.9E1,1.32E2,1.82E2,2.17E2,6.3E1,6E1,9.9E1,6.2E1,1.02E2,2.92E2,1.38E2,6.9E1,5.1E1,5.5E1,7.7E1,1.11E2,7.1E1,1.51E2,6.6E1,2.8E1,3.5E1,4E1,2E1,2.1E1,7.8E1,5.5E1,7E0,9E0,9.3E1,1.93E2,9.9E1],"tree_param":{"num_deleted":"0","num_feature":"31","num_nodes":"49","size_leaf_vector":"1"}},{"base_weights":[-4.5544404E-1,-3.2790195E1,4.2043266E1,-5.3713486E1,-1.2465915E1,2.0949095E1,5.5033733E1,-5.801817E1,-4.307047E1,-1.739234E1,-6.5329494E0,1.2860004E1,3.0399414E1,4.8672516E1,8.068342E1,-6.239714E-1,-5.352484E-1,-4.5188332E-1,-3.626747E-1,-2.260635E1,-1.4333392E1,-8.957966E0,-2.510445E-1,5.5027404E0,1.7534369E1,2.0575424E1,3.4777824E1,4.4733974E1,5.7454616E-1,7.02293E-1,9.1416776E-1,-2.4955495E-1,-2.0451522E-1,-1.4949277E-1,-1.04935855E-1,-9.531619E-2,-4.583805E-3,-3.930164E-2,4.700618E-2,8.6386696E-2,-2.570874E-3,1.14621215E-1,1.920513E-1,3.5124984E-2,2.2014073E-1,2.634927E-1,3.6025035E-1,4.1104066E-1,4.8808974E-1],"categories":[],"categories_nodes":[],"categories_segments":[],"categories_sizes":[],"default_left":[0,0,0,0,0,0,0,0,0,0,0,0,0,0,0,0,0,0,0,0,0,0,0,0,0,0,0,0,0,0,0,0,0,0,0,0,0,0,0,0,0,0,0,0,0,0,0,0,0],"id":24,"left_children":[1,3,5,7,9,11,13,15,17,19,21,23,25,27,29,-1,-1,-1,-1,31,33,35,37,39,41,43,45,47,-1,-1,-1,-1,-1,-1,-1,-1,-1,-1,-1,-1,-1,-1,-1,-1,-1,-1,-1,-1,-1],"loss_changes":[2.7318848E6,4.794385E5,2.34233E5,2.297425E4,1.6663422E4,2.4759297E4,8.2712625E4,4.393E3,7.24E2,4.668133E3,3.9889854E3,6.059418E3,5.7794688E3,1.22338125E4,5.2494375E3,0E0,0E0,0E0,0E0,6.669141E1,3.1610547E2,9.1716016E2,1.3665884E3,1.2846523E3,8.8570703E2,1.1255039E3,1.3352344E2,2.4313125E3,0E0,0E0,0E0,0E0,0E0,0E0,0E0,0E0,0E0,0E0,0E0,0E0,0E0,0E0,0E0,0E0,0E0,0E0,0E0,0E0,0E0],"parents":[2147483647,0,0,1,1,2,2,3,3,4,4,5,5,6,6,7,7,8,8,9,9,10,10,11,11,12,12,13,13,14,14,19,19,20,20,21,21,22,22,23,23,24,24,25,25,26,26,27,27],"right_children":[2,4,6,8,10,12,14,16,18,20,22,24,26,28,30,-1,-1,-1,-1,32,34,36,38,40,42,44,46,48,-1,-1,-1,-1,-1,-1,-1,-1,-1,-1,-1,-1,-1,-1,-1,-1,-1,-1,-1,-1,-1],"split_conditions":[4.1352734E-1,2.0568804E-1,6.0529894E-1,1.0945515E-1,3.2494414E-1,5.205674E-1,7.7830744E-1,6.237496E-2,1.670032E-1,2.8470865E-1,3.630285E-1,4.7447768E-1,5.2436787E-1,7.0209616E-1,8.6439437E-1,-6.239714E-1,-5.352484E-1,-4.5188332E-1,-3.626747E-1,2.6131406E-1,3.4547842E-1,6.927896E-1,3.980404E-1,5.350537E-1,4.5498282E-1,4.8974422E-1,5.3847224E-1,6.594086E-1,5.7454616E-1,7.02293E-1,9.1416776E-1,-2.4955495E-1,-2.0451522E-1,-1.4949277E-1,-1.04935855E-1,-9.531619E-2,-4.583805E-3,-3.930164E-2,4.700618E-2,8.6386696E-2,-2.570874E-3,1.14621215E-1,1.920513E-1,3.5124984E-2,2.2014073E-1,2.634927E-1,3.6025035E-1,4.1104066E-1,4.8808974E-1],"split_indices":[1,16,2,17,1,0,15,1,17,20,2,17,17,17,2,0,0,0,0,14,17,11,14,14,1,12,15,2,0,0,0,0,0,0,0,0,0,0,0,0,0,0,0,0,0,0,0,0,0],"split_type":[0,0,0,0,0,0,0,0,0,0,0,0,0,0,0,0,0,0,0,0,0,0,0,0,0,0,0,0,0,0,0,0,0,0,0,0,0,0,0,0,0,0,0,0,0,0,0,0,0],"sum_hessian":[1.986E3,1.128E3,8.58E2,5.55E2,5.73E2,3.28E2,5.3E2,3.92E2,1.63E2,3.12E2,2.61E2,1.78E2,1.5E2,4.27E2,1.03E2,1.92E2,2E2,1.2E2,4.3E1,1.13E2,1.99E2,1.88E2,7.3E1,7E1,1.08E2,4.8E1,1.02E2,2.99E2,1.28E2,5.6E1,4.7E1,4.9E1,6.4E1,1.69E2,3E1,1.76E2,1.2E1,4.2E1,3.1E1,4.5E1,2.5E1,2.5E1,8.3E1,4E0,4.4E1,1.6E1,8.6E1,1.64E2,1.35E2],"tree_param":{"num_deleted":"0","num_feature":"31","num_nodes":"49","size_leaf_vector":"1"}},{"base_weights":[-3.6853033E-1,-3.266845E1,4.1651352E1,-5.332122E1,-1.3020673E1,2.0879728E1,5.4274796E1,-6.0270727E-1,-4.72364E1,-2.2080399E1,-9.278085E0,1.1370798E1,2.9659136E1,4.7826893E1,7.8660675E1,-5.121264E-1,-4.2262396E-1,-2.606327E-1,-1.9728573E1,-1.2302597E1,-4.6209292E0,4.7415957E0,1.6045425E1,2.2092558E1,3.4886147E1,4.3089806E1,5.523121E1,6.5488607E-1,8.786611E1,-2.0233475E-1,-1.329915E-1,-1.3757405E-1,-1.0078626E-1,-7.343228E-2,2.5811752E-2,8.099654E-2,-6.5766564E-3,1.0715094E-1,1.8376596E-1,2.0344046E-1,3.3756217E-1,1.8064304E-1,3.5398883E-1,4.014975E-1,4.5648167E-1,5.02814E-1,5.889305E-1,6.479667E-1,9.2023695E-1],"categories":[],"categories_nodes":[],"categories_segments":[],"categories_sizes":[],"default_left":[0,0,0,0,0,0,0,0,0,0,0,0,0,0,0,0,0,0,0,0,0,0,0,0,0,0,0,0,0,0,0,0,0,0,0,0,0,0,0,0,0,0,0,0,0,0,0,0,0],"id":25,"left_children":[1,3,5,7,9,11,13,-1,15,17,19,21,23,25,27,-1,-1,-1,29,31,33,35,37,39,41,43,45,-1,47,-1,-1,-1,-1,-1,-1,-1,-1,-1,-1,-1,-1,-1,-1,-1,-1,-1,-1,-1,-1],"loss_changes":[2.729411E6,4.6067875E5,2.2803775E5,2.057975E4,1.9596734E4,2.7379016E4,8.1618E4,0E0,3.769E3,1.0782031E3,5.7886797E3,4.913158E3,6.0319844E3,1.2772375E4,7.8263125E3,0E0,0E0,0E0,9.124219E1,6.734414E2,3.2539907E3,1.2382375E3,9.711289E2,8.0202734E2,2.230625E2,1.830625E2,2.946875E1,0E0,7.971875E1,0E0,0E0,0E0,0E0,0E0,0E0,0E0,0E0,0E0,0E0,0E0,0E0,0E0,0E0,0E0,0E0,0E0,0E0,0E0,0E0],"parents":[2147483647,0,0,1,1,2,2,3,3,4,4,5,5,6,6,8,8,9,9,10,10,11,11,12,12,13,13,14,14,18,18,19,19,20,20,21,21,22,22,23,23,24,24,25,25,26,26,28,28],"right_children":[2,4,6,8,10,12,14,-1,16,18,20,22,24,26,28,-1,-1,-1,30,32,34,36,38,40,42,44,46,-1,48,-1,-1,-1,-1,-1,-1,-1,-1,-1,-1,-1,-1,-1,-1,-1,-1,-1,-1,-1,-1],"split_conditions":[4.1352734E-1,1.8559334E-1,6.064014E-1,8.075561E-2,3.0168954E-1,5.086351E-1,7.592026E-1,-6.0270727E-1,1.191944E-1,2.6275977E-1,3.4019738E-1,4.7755623E-1,5.665618E-1,7.004605E-1,8.4794253E-1,-5.121264E-1,-4.2262396E-1,-2.606327E-1,3.2002625E-1,3.2494414E-1,3.953913E-1,5.350537E-1,4.5498282E-1,6.6893536E-1,4.5143858E-1,6.4380896E-1,7.1596086E-1,6.5488607E-1,5.8915895E-1,-2.0233475E-1,-1.329915E-1,-1.3757405E-1,-1.0078626E-1,-7.343228E-2,2.5811752E-2,8.099654E-2,-6.5766564E-3,1.0715094E-1,1.8376596E-1,2.0344046E-1,3.3756217E-1,1.8064304E-1,3.5398883E-1,4.014975E-1,4.5648167E-1,5.02814E-1,5.889305E-1,6.479667E-1,9.2023695E-1],"split_indices":[1,0,3,21,29,1,1,0,2,30,3,17,17,15,29,0,0,0,17,1,17,14,1,14,13,2,17,0,25,0,0,0,0,0,0,0,0,0,0,0,0,0,0,0,0,0,0,0,0],"split_type":[0,0,0,0,0,0,0,0,0,0,0,0,0,0,0,0,0,0,0,0,0,0,0,0,0,0,0,0,0,0,0,0,0,0,0,0,0,0,0,0,0,0,0,0,0,0,0,0,0],"sum_hessian":[2.009E3,1.136E3,8.73E2,5.53E2,5.83E2,3.31E2,5.42E2,2.54E2,2.99E2,1.69E2,4.14E2,1.6E2,1.71E2,4.31E2,1.11E2,1.61E2,1.38E2,5.9E1,1.1E2,2.5E2,1.64E2,6.7E1,9.3E1,7.2E1,9.9E1,2.67E2,1.64E2,4.9E1,6.2E1,1E2,1E1,1.48E2,1.02E2,1.19E2,4.5E1,4.1E1,2.6E1,3E1,6.3E1,6.5E1,7E0,4E0,9.5E1,1.32E2,1.35E2,7.6E1,8.8E1,1.2E1,5E1],"tree_param":{"num_deleted":"0","num_feature":"31","num_nodes":"49","size_leaf_vector":"1"}},{"base_weights":[2.0671974E-1,-2.9879372E1,4.4247696E1,-5.2508797E1,-1.0588395E1,3.2992706E1,6.432898E1,-5.7999218E1,-4.4321274E1,-1.620978E1,-2.9780862E0,1.9856232E1,4.0976746E1,5.7338707E1,8.6867034E-1,-6.181308E-1,-5.374862E-1,-4.6469143E-1,-3.6250553E-1,-2.2114752E1,-1.3299247E1,-6.1904607E0,6.334452E0,1.1759078E1,2.3150303E1,3.5016678E1,4.3228102E-1,5.187725E-1,6.214775E-1,-2.4383886E-1,-1.9854487E-1,-1.4231658E-1,-9.703185E-2,-7.664083E-2,3.6446497E-2,2.3660805E-2,1.0016635E-1,1.6436862E-2,1.4042945E-1,1.9997014E-1,2.8533953E-1,1.9432855E-1,3.6254767E-1],"categories":[],"categories_nodes":[],"categories_segments":[],"categories_sizes":[],"default_left":[0,0,0,0,0,0,0,0,0,0,0,0,0,0,0,0,0,0,0,0,0,0,0,0,0,0,0,0,0,0,0,0,0,0,0,0,0,0,0,0,0,0,0],"id":26,"left_children":[1,3,5,7,9,11,13,15,17,19,21,23,25,27,-1,-1,-1,-1,-1,29,31,33,35,37,39,41,-1,-1,-1,-1,-1,-1,-1,-1,-1,-1,-1,-1,-1,-1,-1,-1,-1],"loss_changes":[2.6182382E6,5.1194644E5,1.7914138E5,2.170375E4,2.711732E4,5.33055E4,4.023525E4,1.865375E3,2.1465E3,5.979008E3,8.146276E3,4.9822812E3,2.780125E3,2.606625E3,0E0,0E0,0E0,0E0,0E0,1.2620703E2,6.9010156E2,2.955567E3,9.9915894E2,1.3399487E3,1.7890938E3,1.0898281E3,0E0,0E0,0E0,0E0,0E0,0E0,0E0,0E0,0E0,0E0,0E0,0E0,0E0,0E0,0E0,0E0,0E0],"parents":[2147483647,0,0,1,1,2,2,3,3,4,4,5,5,6,6,7,7,8,8,9,9,10,10,11,11,12,12,13,13,19,19,20,20,21,21,22,22,23,23,24,24,25,25],"right_children":[2,4,6,8,10,12,14,16,18,20,22,24,26,28,-1,-1,-1,-1,-1,30,32,34,36,38,40,42,-1,-1,-1,-1,-1,-1,-1,-1,-1,-1,-1,-1,-1,-1,-1,-1,-1],"split_conditions":[4.5847082E-1,2.0568804E-1,6.993798E-1,9.285816E-2,3.3264887E-1,5.7353556E-1,8.183543E-1,5.3822126E-2,1.5989769E-1,2.8470865E-1,4.2879778E-1,4.8351124E-1,6.1444294E-1,7.577249E-1,8.6867034E-1,-6.181308E-1,-5.374862E-1,-4.6469143E-1,-3.6250553E-1,2.6131406E-1,3.4547842E-1,4.5693862E-1,4.1692728E-1,4.403977E-1,5.576432E-1,4.2590037E-1,4.3228102E-1,5.187725E-1,6.214775E-1,-2.4383886E-1,-1.9854487E-1,-1.4231658E-1,-9.703185E-2,-7.664083E-2,3.6446497E-2,2.3660805E-2,1.0016635E-1,1.6436862E-2,1.4042945E-1,1.9997014E-1,2.8533953E-1,1.9432855E-1,3.6254767E-1],"split_indices":[15,16,15,1,3,1,2,17,17,20,17,3,2,30,0,0,0,0,0,14,17,16,0,27,17,17,0,0,0,0,0,0,0,0,0,0,0,0,0,0,0,0,0],"split_type":[0,0,0,0,0,0,0,0,0,0,0,0,0,0,0,0,0,0,0,0,0,0,0,0,0,0,0,0,0,0,0,0,0,0,0,0,0,0,0,0,0,0,0],"sum_hessian":[1.974E3,1.173E3,8.01E2,5.39E2,6.34E2,5.15E2,2.86E2,3.19E2,2.2E2,3.64E2,2.7E2,1.96E2,3.19E2,2.21E2,6.5E1,1.61E2,1.58E2,1.7E2,5E1,1.18E2,2.46E2,2.01E2,6.9E1,5.8E1,1.38E2,9.2E1,2.27E2,1.09E2,1.12E2,5.4E1,6.4E1,1.93E2,5.3E1,1.75E2,2.6E1,3.4E1,3.5E1,1.1E1,4.7E1,9E1,4.8E1,8E0,8.4E1],"tree_param":{"num_deleted":"0","num_feature":"31","num_nodes":"43","size_leaf_vector":"1"}},{"base_weights":[5.9322275E-2,-3.1663397E1,4.1526154E1,-5.205387E1,-1.18471775E1,2.307722E1,5.392205E1,-5.746155E1,-4.3844925E1,-1.7218954E1,-5.9935584E0,1.5271173E1,3.2713425E1,4.872314E1,8.102079E1,-6.1295044E-1,-5.321757E-1,-4.585341E-1,-3.612655E-1,-2.2407642E1,-1.4031889E1,-8.0325E0,1.8145359E0,8.679925E0,1.9666256E1,2.1150751E1,3.5482115E-1,4.4294712E1,5.6586365E1,6.4079237E-1,8.721837E-1,-2.4731204E-1,-2.0472124E-1,-1.4718261E-1,-9.5105655E-2,-9.001412E-2,-3.2304145E-2,4.045966E-2,-5.646916E-2,2.5346931E-2,1.3071482E-1,1.8692906E-1,3.071321E-1,1.16946466E-1,2.2051777E-1,4.134764E-1,4.8687723E-1,4.9666598E-1,5.9568685E-1],"categories":[],"categories_nodes":[],"categories_segments":[],"categories_sizes":[],"default_left":[0,0,0,0,0,0,0,0,0,0,0,0,0,0,0,0,0,0,0,0,0,0,0,0,0,0,0,0,0,0,0,0,0,0,0,0,0,0,0,0,0,0,0,0,0,0,0,0,0],"id":27,"left_children":[1,3,5,7,9,11,13,15,17,19,21,23,25,27,29,-1,-1,-1,-1,31,33,35,37,39,41,43,-1,45,47,-1,-1,-1,-1,-1,-1,-1,-1,-1,-1,-1,-1,-1,-1,-1,-1,-1,-1,-1,-1],"loss_changes":[2.667713E6,4.6365062E5,1.99775E5,2.2606125E4,1.826029E4,2.6203766E4,7.0016625E4,2.237E3,1.8934688E3,4.7127266E3,4.488165E3,5.5651797E3,4.307672E3,1.29195E4,3.1258125E3,0E0,0E0,0E0,0E0,6.3867188E0,4.527539E2,1.0084961E3,1.0051803E3,2.1528267E3,6.946797E2,2.3279297E1,0E0,1.7155E3,2.6078125E2,0E0,0E0,0E0,0E0,0E0,0E0,0E0,0E0,0E0,0E0,0E0,0E0,0E0,0E0,0E0,0E0,0E0,0E0,0E0,0E0],"parents":[2147483647,0,0,1,1,2,2,3,3,4,4,5,5,6,6,7,7,8,8,9,9,10,10,11,11,12,12,13,13,14,14,19,19,20,20,21,21,22,22,23,23,24,24,25,25,27,27,28,28],"right_children":[2,4,6,8,10,12,14,16,18,20,22,24,26,28,30,-1,-1,-1,-1,32,34,36,38,40,42,44,-1,46,48,-1,-1,-1,-1,-1,-1,-1,-1,-1,-1,-1,-1,-1,-1,-1,-1,-1,-1,-1,-1],"split_conditions":[4.257287E-1,2.0568804E-1,6.168707E-1,9.285816E-2,3.2494414E-1,5.576432E-1,7.7875686E-1,5.3822126E-2,1.5989769E-1,2.8470865E-1,3.7243998E-1,4.7709998E-1,5.175526E-1,7.0209616E-1,7.766259E-1,-6.1295044E-1,-5.321757E-1,-4.585341E-1,-3.612655E-1,2.6275977E-1,3.4330082E-1,5.5503154E-1,6.815411E-1,5.6528294E-1,6.6893536E-1,5.0747764E-1,3.5482115E-1,7.055745E-1,7.163401E-1,6.4079237E-1,8.721837E-1,-2.4731204E-1,-2.0472124E-1,-1.4718261E-1,-9.5105655E-2,-9.001412E-2,-3.2304145E-2,4.045966E-2,-5.646916E-2,2.5346931E-2,1.3071482E-1,1.8692906E-1,3.071321E-1,1.16946466E-1,2.2051777E-1,4.134764E-1,4.8687723E-1,4.9666598E-1,5.9568685E-1],"split_indices":[1,16,2,1,1,17,3,17,17,20,2,2,15,17,17,0,0,0,0,30,17,11,12,12,14,10,0,16,29,0,0,0,0,0,0,0,0,0,0,0,0,0,0,0,0,0,0,0,0],"split_type":[0,0,0,0,0,0,0,0,0,0,0,0,0,0,0,0,0,0,0,0,0,0,0,0,0,0,0,0,0,0,0,0,0,0,0,0,0,0,0,0,0,0,0,0,0,0,0,0,0],"sum_hessian":[2.026E3,1.148E3,8.78E2,5.65E2,5.83E2,3.54E2,5.24E2,3.37E2,2.28E2,3.03E2,2.8E2,1.97E2,1.57E2,4.42E2,8.2E1,1.7E2,1.67E2,1.77E2,5.1E1,1.13E2,1.9E2,2.22E2,5.8E1,8E1,1.17E2,3.2E1,1.25E2,2.87E2,1.55E2,2.5E1,5.7E1,4.6E1,6.7E1,1.63E2,2.7E1,1.84E2,3.8E1,4.5E1,1.3E1,3.4E1,4.6E1,1.1E2,7E0,4E0,2.8E1,1.78E2,1.09E2,5.2E1,1.03E2],"tree_param":{"num_deleted":"0","num_feature":"31","num_nodes":"49","size_leaf_vector":"1"}},{"base_weights":[2.8283736E-1,-2.9906229E1,4.270839E1,-5.142933E1,-1.095092E1,2.9265657E1,5.969967E1,-5.574797E1,-4.1135452E1,-1.6917755E1,-4.251814E0,1.781803E1,3.8091053E1,5.3508236E1,8.675039E-1,-5.994068E-1,-5.1122624E-1,-4.324283E-1,-3.5141718E-1,-2.247091E1,-1.3659374E1,-7.852103E0,3.7867606E0,8.890736E0,2.1327631E1,3.3856064E1,4.0133953E-1,4.9173698E-1,6.0678497E1,-2.4900791E-1,-2.0414267E-1,-1.7131507E-1,-1.2782477E-1,-8.2207896E-2,5.561779E-2,-7.387278E-2,5.743809E-2,3.9134275E-2,1.598625E-1,1.2973055E-1,2.3769815E-1,1.9936234E-1,3.443354E-1,3.3228037E-1,6.1688435E-1],"categories":[],"categories_nodes":[],"categories_segments":[],"categories_sizes":[],"default_left":[0,0,0,0,0,0,0,0,0,0,0,0,0,0,0,0,0,0,0,0,0,0,0,0,0,0,0,0,0,0,0,0,0,0,0,0,0,0,0,0,0,0,0,0,0],"id":28,"left_children":[1,3,5,7,9,11,13,15,17,19,21,23,25,27,-1,-1,-1,-1,-1,29,31,33,35,37,39,41,-1,-1,43,-1,-1,-1,-1,-1,-1,-1,-1,-1,-1,-1,-1,-1,-1,-1,-1],"loss_changes":[2.538518E6,4.7187412E5,1.86462E5,2.1801625E4,2.459107E4,4.5997094E4,5.61545E4,4.2855E3,5.51875E2,5.591797E3,8.4805625E3,6.170625E3,8.9065625E2,6.278E3,0E0,0E0,0E0,0E0,0E0,8.6359375E1,4.143125E2,1.0447148E3,2.0324315E3,2.0211162E3,2.650125E3,4.5015625E1,0E0,0E0,9.4434375E2,0E0,0E0,0E0,0E0,0E0,0E0,0E0,0E0,0E0,0E0,0E0,0E0,0E0,0E0,0E0,0E0],"parents":[2147483647,0,0,1,1,2,2,3,3,4,4,5,5,6,6,7,7,8,8,9,9,10,10,11,11,12,12,13,13,19,19,20,20,21,21,22,22,23,23,24,24,25,25,28,28],"right_children":[2,4,6,8,10,12,14,16,18,20,22,24,26,28,-1,-1,-1,-1,-1,30,32,34,36,38,40,42,-1,-1,44,-1,-1,-1,-1,-1,-1,-1,-1,-1,-1,-1,-1,-1,-1,-1,-1],"split_conditions":[4.4488868E-1,2.0568804E-1,6.594086E-1,1.1124712E-1,3.2878622E-1,5.680248E-1,8.4794253E-1,6.383509E-2,1.670032E-1,2.8470865E-1,3.953913E-1,4.7447768E-1,6.117912E-1,7.577249E-1,8.675039E-1,-5.994068E-1,-5.1122624E-1,-4.324283E-1,-3.5141718E-1,2.4866536E-1,2.9623938E-1,5.0717634E-1,3.4833267E-1,6.0376173E-1,4.2012045E-1,4.2590037E-1,4.0133953E-1,4.9173698E-1,2.2492494E-1,-2.4900791E-1,-2.0414267E-1,-1.7131507E-1,-1.2782477E-1,-8.2207896E-2,5.561779E-2,-7.387278E-2,5.743809E-2,3.9134275E-2,1.598625E-1,1.2973055E-1,2.3769815E-1,1.9936234E-1,3.443354E-1,3.3228037E-1,6.1688435E-1],"split_indices":[29,16,2,16,1,1,29,1,17,20,17,17,2,30,0,0,0,0,0,14,30,30,15,27,14,17,0,0,11,0,0,0,0,0,0,0,0,0,0,0,0,0,0,0,0],"split_type":[0,0,0,0,0,0,0,0,0,0,0,0,0,0,0,0,0,0,0,0,0,0,0,0,0,0,0,0,0,0,0,0,0,0,0,0,0,0,0,0,0,0,0,0,0],"sum_hessian":[1.98E3,1.157E3,8.23E2,5.41E2,6.16E2,4.61E2,3.62E2,3.78E2,1.63E2,3.25E2,2.91E2,2.02E2,2.59E2,2.97E2,6.5E1,1.92E2,1.86E2,1.16E2,4.7E1,1.18E2,2.07E2,2.01E2,9E1,5.8E1,1.44E2,9E1,1.69E2,1.9E2,1.07E2,4.9E1,6.9E1,3.8E1,1.69E2,1.96E2,5E0,1.3E1,7.7E1,3.5E1,2.3E1,3.4E1,1.1E2,5E0,8.5E1,5E0,1.02E2],"tree_param":{"num_deleted":"0","num_feature":"31","num_nodes":"45","size_leaf_vector":"1"}},{"base_weights":[7.1098427E-3,-3.066733E1,4.0574226E1,-5.146683E1,-1.1729544E1,1.9702127E1,5.168086E1,-5.815484E-1,-4.5343227E1,-1.7433413E1,-6.1187353E0,1.2394877E1,2.7796902E1,4.562195E1,7.409218E1,-4.9230674E-1,-4.0760997E-1,-2.2455658E1,-1.3832572E1,-8.541382E0,1.359995E0,2.6309361E0,1.5107734E1,1.8572247E1,3.174907E1,4.1112137E1,5.2813053E1,5.798314E-1,8.045732E-1,-2.7760333E-1,-2.1011026E-1,-1.4995874E-1,-1.1781552E-1,-7.294062E-2,-1.1106969E-1,3.819819E-2,-5.1471632E-2,5.2772265E-2,-4.7771413E-2,9.568981E-2,1.6832545E-1,2.9566817E-2,2.0023601E-1,2.381982E-1,3.399883E-1,3.7553737E-1,4.3654254E-1,3.565453E-1,5.356005E-1],"categories":[],"categories_nodes":[],"categories_segments":[],"categories_sizes":[],"default_left":[0,0,0,0,0,0,0,0,0,0,0,0,0,0,0,0,0,0,0,0,0,0,0,0,0,0,0,0,0,0,0,0,0,0,0,0,0,0,0,0,0,0,0,0,0,0,0,0,0],"id":29,"left_children":[1,3,5,7,9,11,13,-1,15,17,19,21,23,25,27,-1,-1,29,31,33,35,37,39,41,43,45,47,-1,-1,-1,-1,-1,-1,-1,-1,-1,-1,-1,-1,-1,-1,-1,-1,-1,-1,-1,-1,-1,-1],"loss_changes":[2.491236E6,4.4843838E5,1.9880962E5,1.96015E4,1.9031312E4,1.7459773E4,7.2932625E4,0E0,3.1235E3,5.042336E3,5.501468E3,4.1983594E3,4.587297E3,1.22603125E4,7.4341875E3,0E0,0E0,3.5164844E2,2.4086719E2,6.5181055E2,1.2201461E3,7.3095135E2,1.0330938E3,9.6066406E2,9.383672E2,8.75375E2,2.4365625E2,0E0,0E0,0E0,0E0,0E0,0E0,0E0,0E0,0E0,0E0,0E0,0E0,0E0,0E0,0E0,0E0,0E0,0E0,0E0,0E0,0E0,0E0],"parents":[2147483647,0,0,1,1,2,2,3,3,4,4,5,5,6,6,8,8,9,9,10,10,11,11,12,12,13,13,14,14,17,17,18,18,19,19,20,20,21,21,22,22,23,23,24,24,25,25,26,26],"right_children":[2,4,6,8,10,12,14,-1,16,18,20,22,24,26,28,-1,-1,30,32,34,36,38,40,42,44,46,48,-1,-1,-1,-1,-1,-1,-1,-1,-1,-1,-1,-1,-1,-1,-1,-1,-1,-1,-1,-1,-1,-1],"split_conditions":[4.257287E-1,1.7704867E-1,6.115116E-1,8.075561E-2,3.222751E-1,5.1208955E-1,7.560379E-1,-5.815484E-1,1.15309626E-1,2.8470865E-1,3.692807E-1,4.6475214E-1,5.1563036E-1,6.993798E-1,7.6251596E-1,-4.9230674E-1,-4.0760997E-1,1.8924737E-1,3.2258868E-1,4.7651133E-1,6.815411E-1,4.9039534E-1,3.954856E-1,4.8974422E-1,5.3847224E-1,4.7035903E-1,2.3969892E-1,5.798314E-1,8.045732E-1,-2.7760333E-1,-2.1011026E-1,-1.4995874E-1,-1.1781552E-1,-7.294062E-2,-1.1106969E-1,3.819819E-2,-5.1471632E-2,5.2772265E-2,-4.7771413E-2,9.568981E-2,1.6832545E-1,2.9566817E-2,2.0023601E-1,2.381982E-1,3.399883E-1,3.7553737E-1,4.3654254E-1,3.565453E-1,5.356005E-1],"split_indices":[1,14,15,21,1,2,2,0,14,20,2,27,17,15,13,0,0,14,17,9,12,10,13,12,15,26,11,0,0,0,0,0,0,0,0,0,0,0,0,0,0,0,0,0,0,0,0,0,0],"split_type":[0,0,0,0,0,0,0,0,0,0,0,0,0,0,0,0,0,0,0,0,0,0,0,0,0,0,0,0,0,0,0,0,0,0,0,0,0,0,0,0,0,0,0,0,0,0,0,0,0],"sum_hessian":[2E3,1.139E3,8.61E2,5.42E2,5.97E2,3E2,5.61E2,2.55E2,2.87E2,2.95E2,3.02E2,1.59E2,1.41E2,4.44E2,1.17E2,1.5E2,1.37E2,1.21E2,1.74E2,2.28E2,7.4E1,3.5E1,1.24E2,4.4E1,9.7E1,2.77E2,1.67E2,3.6E1,8.1E1,2.2E1,9.9E1,1.07E2,6.7E1,1.56E2,7.2E1,5.4E1,2E1,2.6E1,9E0,3.1E1,9.3E1,4E0,4E1,2.4E1,7.3E1,1.22E2,1.55E2,9E0,1.58E2],"tree_param":{"num_deleted":"0","num_feature":"31","num_nodes":"49","size_leaf_vector":"1"}},{"base_weights":[-1.4440851E-2,-3.144118E1,3.895473E1,-5.0723217E1,-1.2547152E1,1.9250128E1,5.181427E1,-5.764643E-1,-4.5132683E1,-2.1083494E1,-8.973203E0,1.1218846E1,2.8423355E1,4.59959E1,7.598818E1,-4.8913184E-1,-4.0664074E-1,-2.611373E-1,-1.9055262E1,-1.09451275E1,-3.60829E0,4.9191475E0,1.5486015E1,1.8520193E1,3.195329E1,4.1055363E1,5.2865974E1,5.766142E-1,8.16656E-1,-1.953125E-1,-1.3064446E-1,-1.2639864E-1,-8.480005E-2,-5.894863E-2,2.077991E-2,7.9615995E-2,2.0174526E-3,9.799525E-2,1.778028E-1,6.3765146E-2,2.0536327E-1,2.4387352E-1,3.3669552E-1,3.885787E-1,4.4427526E-1,4.797456E-1,5.634827E-1],"categories":[],"categories_nodes":[],"categories_segments":[],"categories_sizes":[],"default_left":[0,0,0,0,0,0,0,0,0,0,0,0,0,0,0,0,0,0,0,0,0,0,0,0,0,0,0,0,0,0,0,0,0,0,0,0,0,0,0,0,0,0,0,0,0,0,0],"id":30,"left_children":[1,3,5,7,9,11,13,-1,15,17,19,21,23,25,27,-1,-1,-1,29,31,33,35,37,39,41,43,45,-1,-1,-1,-1,-1,-1,-1,-1,-1,-1,-1,-1,-1,-1,-1,-1,-1,-1,-1,-1],"loss_changes":[2.4689425E6,4.059395E5,2.2705562E5,1.8763125E4,1.7048086E4,2.5982312E4,7.3019875E4,0E0,3.248E3,1.1960078E3,4.1921855E3,5.0851445E3,5.211172E3,1.27979375E4,6.1120625E3,0E0,0E0,0E0,9.272266E1,1.1127148E3,1.4294779E3,1.132239E3,1.3130391E3,9.952803E2,7.5009375E2,2.076875E2,3.7978125E2,0E0,0E0,0E0,0E0,0E0,0E0,0E0,0E0,0E0,0E0,0E0,0E0,0E0,0E0,0E0,0E0,0E0,0E0,0E0,0E0],"parents":[2147483647,0,0,1,1,2,2,3,3,4,4,5,5,6,6,8,8,9,9,10,10,11,11,12,12,13,13,14,14,18,18,19,19,20,20,21,21,22,22,23,23,24,24,25,25,26,26],"right_children":[2,4,6,8,10,12,14,-1,16,18,20,22,24,26,28,-1,-1,-1,30,32,34,36,38,40,42,44,46,-1,-1,-1,-1,-1,-1,-1,-1,-1,-1,-1,-1,-1,-1,-1,-1,-1,-1,-1,-1],"split_conditions":[4.0442118E-1,1.8752934E-1,6.064014E-1,8.0722354E-2,3.0168954E-1,5.1208955E-1,7.7830744E-1,-5.764643E-1,1.15309626E-1,2.4078171E-1,3.4926674E-1,4.7755623E-1,5.1563036E-1,6.993798E-1,7.6957446E-1,-4.8913184E-1,-4.0664074E-1,-2.611373E-1,3.1837836E-1,3.2878622E-1,3.9036152E-1,5.350537E-1,4.5498282E-1,5.0272346E-1,5.3847224E-1,6.594086E-1,7.133803E-1,5.766142E-1,8.16656E-1,-1.953125E-1,-1.3064446E-1,-1.2639864E-1,-8.480005E-2,-5.894863E-2,2.077991E-2,7.9615995E-2,2.0174526E-3,9.799525E-2,1.778028E-1,6.3765146E-2,2.0536327E-1,2.4387352E-1,3.3669552E-1,3.885787E-1,4.4427526E-1,4.797456E-1,5.634827E-1],"split_indices":[1,16,3,16,29,2,15,0,14,3,2,17,17,15,13,0,0,0,17,1,17,14,1,10,15,2,17,0,0,0,0,0,0,0,0,0,0,0,0,0,0,0,0,0,0,0,0],"split_type":[0,0,0,0,0,0,0,0,0,0,0,0,0,0,0,0,0,0,0,0,0,0,0,0,0,0,0,0,0,0,0,0,0,0,0,0,0,0,0,0,0,0,0,0,0,0,0],"sum_hessian":[2.014E3,1.115E3,8.99E2,5.51E2,5.64E2,3.56E2,5.43E2,2.42E2,3.09E2,1.65E2,3.99E2,1.91E2,1.65E2,4.4E2,1.03E2,1.62E2,1.47E2,4.4E1,1.21E2,2.91E2,1.08E2,7.8E1,1.13E2,4.5E1,1.2E2,2.6E2,1.8E2,2.7E1,7.6E1,1.1E2,1.1E1,1.7E2,1.21E2,7.7E1,3.1E1,4.7E1,3.1E1,3.4E1,7.9E1,7E0,3.8E1,2.5E1,9.5E1,1.65E2,9.5E1,8.1E1,9.9E1],"tree_param":{"num_deleted":"0","num_feature":"31","num_nodes":"47","size_leaf_vector":"1"}},{"base_weights":[-1.5670795E-2,-3.0540825E1,4.005517E1,-5.0014065E1,-1.1649831E1,2.1451002E1,5.1882496E1,-5.4532784E1,-4.090404E1,-1.6542074E1,-5.336137E0,1.2899556E1,2.9778296E1,4.672948E1,8.006068E1,-5.925953E-1,-5.0721854E-1,-4.2820325E-1,-3.4121794E-1,-2.1394756E1,-1.35261E1,-7.615638E0,8.2961816E-1,5.4827404E0,1.649481E1,1.9256107E1,3.2924507E1,4.127036E1,5.367705E1,6.067901E-1,8.4260815E-1,-2.3633271E-1,-1.9330283E-1,-1.3772315E-1,-5.7415266E-2,-8.2167596E-2,-1.5152842E-2,-3.4346115E-2,4.7256775E-2,3.5174932E-2,1.3381273E-1,9.94743E-2,1.8510847E-1,6.1117563E-2,2.1277061E-1,2.9170796E-1,3.5507303E-1,3.6324644E-1,4.2714694E-1,3.5868645E-1,5.444165E-1],"categories":[],"categories_nodes":[],"categories_segments":[],"categories_sizes":[],"default_left":[0,0,0,0,0,0,0,0,0,0,0,0,0,0,0,0,0,0,0,0,0,0,0,0,0,0,0,0,0,0,0,0,0,0,0,0,0,0,0,0,0,0,0,0,0,0,0,0,0,0,0],"id":31,"left_children":[1,3,5,7,9,11,13,15,17,19,21,23,25,27,29,-1,-1,-1,-1,31,33,35,37,39,41,43,45,47,49,-1,-1,-1,-1,-1,-1,-1,-1,-1,-1,-1,-1,-1,-1,-1,-1,-1,-1,-1,-1,-1,-1],"loss_changes":[2.4695772E6,4.20995E5,1.9098E5,2.0986875E4,1.7919516E4,2.3898625E4,7.365175E4,3.731125E3,1.02125E3,4.511078E3,3.6043584E3,4.44267E3,5.0600625E3,1.49659375E4,1.481E3,0E0,0E0,0E0,0E0,1.1620703E2,3.1384375E2,6.732881E2,1.1791893E3,8.377178E2,1.3206367E3,9.856543E2,2.3428125E2,2.91375E2,7.16E2,0E0,0E0,0E0,0E0,0E0,0E0,0E0,0E0,0E0,0E0,0E0,0E0,0E0,0E0,0E0,0E0,0E0,0E0,0E0,0E0,0E0,0E0],"parents":[2147483647,0,0,1,1,2,2,3,3,4,4,5,5,6,6,7,7,8,8,9,9,10,10,11,11,12,12,13,13,14,14,19,19,20,20,21,21,22,22,23,23,24,24,25,25,26,26,27,27,28,28],"right_children":[2,4,6,8,10,12,14,16,18,20,22,24,26,28,30,-1,-1,-1,-1,32,34,36,38,40,42,44,46,48,50,-1,-1,-1,-1,-1,-1,-1,-1,-1,-1,-1,-1,-1,-1,-1,-1,-1,-1,-1,-1,-1,-1],"split_conditions":[4.1692728E-1,2.0568804E-1,6.1444294E-1,9.781334E-2,3.2687753E-1,5.205674E-1,7.919738E-1,5.0077148E-2,1.4873843E-1,2.8470865E-1,3.6677754E-1,4.7447768E-1,5.108722E-1,6.8246835E-1,7.766259E-1,-5.925953E-1,-5.0721854E-1,-4.2820325E-1,-3.4121794E-1,2.6131406E-1,3.8883E-1,6.927896E-1,3.9036152E-1,5.1240575E-1,4.5498282E-1,5.0272346E-1,6.165673E-1,1.6185181E-1,6.92613E-1,6.067901E-1,8.4260815E-1,-2.3633271E-1,-1.9330283E-1,-1.3772315E-1,-5.7415266E-2,-8.2167596E-2,-1.5152842E-2,-3.4346115E-2,4.7256775E-2,3.5174932E-2,1.3381273E-1,9.94743E-2,1.8510847E-1,6.1117563E-2,2.1277061E-1,2.9170796E-1,3.5507303E-1,3.6324644E-1,4.2714694E-1,3.5868645E-1,5.444165E-1],"split_indices":[0,16,2,17,1,0,2,2,0,20,2,17,17,3,17,0,0,0,0,14,22,11,17,29,1,10,16,7,16,0,0,0,0,0,0,0,0,0,0,0,0,0,0,0,0,0,0,0,0,0,0],"split_type":[0,0,0,0,0,0,0,0,0,0,0,0,0,0,0,0,0,0,0,0,0,0,0,0,0,0,0,0,0,0,0,0,0,0,0,0,0,0,0,0,0,0,0,0,0,0,0,0,0,0,0],"sum_hessian":[2.017E3,1.145E3,8.72E2,5.63E2,5.82E2,3.4E2,5.32E2,3.73E2,1.9E2,3.27E2,2.55E2,1.69E2,1.71E2,4.52E2,8E1,1.6E2,2.13E2,1.44E2,4.6E1,1.23E2,2.04E2,1.86E2,6.9E1,5.6E1,1.13E2,4.1E1,1.3E2,2.57E2,1.95E2,1.7E1,6.3E1,5.4E1,6.9E1,1.97E2,7E0,1.69E2,1.7E1,3.3E1,3.6E1,4.6E1,1E1,2.8E1,8.5E1,6E0,3.5E1,5.8E1,7.2E1,6.4E1,1.93E2,1E1,1.85E2],"tree_param":{"num_deleted":"0","num_feature":"31","num_nodes":"51","size_leaf_vector":"1"}},{"base_weights":[-2.1387151E-1,-2.9019737E1,4.0542133E1,-4.9606014E1,-1.0784904E1,2.847262E1,5.6028797E1,-5.369397E1,-3.975667E1,-1.6239489E1,-4.228235E0,1.6921906E1,3.656385E1,5.0167824E1,7.86945E1,-5.8185303E-1,-4.9836162E-1,-4.1753048E-1,-3.296355E-1,-2.1089458E1,-1.297412E1,-7.553965E0,3.7009141E0,7.0698705E0,1.9956762E1,2.367449E1,3.7330303E1,4.567327E-1,5.590899E-1,5.963853E-1,8.3500195E-1,-2.3568076E-1,-1.9230236E-1,-1.671842E-1,-1.1958934E-1,-7.8790806E-2,1.0265188E-1,-1.2791354E-2,6.491296E-2,3.554996E-2,1.2535223E-1,1.2394498E-1,2.2209305E-1,7.434656E-2,2.6426813E-1,2.9452458E-1,3.8289055E-1],"categories":[],"categories_nodes":[],"categories_segments":[],"categories_sizes":[],"default_left":[0,0,0,0,0,0,0,0,0,0,0,0,0,0,0,0,0,0,0,0,0,0,0,0,0,0,0,0,0,0,0,0,0,0,0,0,0,0,0,0,0,0,0,0,0,0,0],"id":32,"left_children":[1,3,5,7,9,11,13,15,17,19,21,23,25,27,29,-1,-1,-1,-1,31,33,35,37,39,41,43,45,-1,-1,-1,-1,-1,-1,-1,-1,-1,-1,-1,-1,-1,-1,-1,-1,-1,-1,-1,-1],"loss_changes":[2.3304165E6,4.3604056E5,1.5205E5,1.984925E4,2.2033438E4,4.274647E4,4.374275E4,3.736375E3,8.4778125E2,5.0634297E3,7.4643555E3,5.6295117E3,1.8032812E3,4.8779375E3,1.6137188E3,0E0,0E0,0E0,0E0,1.6429297E2,5.755E2,1.2337432E3,1.1755876E3,8.583086E2,2.2287695E3,6.080762E2,7.983125E2,0E0,0E0,0E0,0E0,0E0,0E0,0E0,0E0,0E0,0E0,0E0,0E0,0E0,0E0,0E0,0E0,0E0,0E0,0E0,0E0],"parents":[2147483647,0,0,1,1,2,2,3,3,4,4,5,5,6,6,7,7,8,8,9,9,10,10,11,11,12,12,13,13,14,14,19,19,20,20,21,21,22,22,23,23,24,24,25,25,26,26],"right_children":[2,4,6,8,10,12,14,16,18,20,22,24,26,28,30,-1,-1,-1,-1,32,34,36,38,40,42,44,46,-1,-1,-1,-1,-1,-1,-1,-1,-1,-1,-1,-1,-1,-1,-1,-1,-1,-1,-1,-1],"split_conditions":[4.4579178E-1,2.0568804E-1,6.594086E-1,1.09183304E-1,3.2878622E-1,5.6188685E-1,7.887766E-1,5.4665156E-2,1.5603597E-1,2.8812504E-1,3.953913E-1,4.6909025E-1,4.6515155E-1,7.1596086E-1,7.846391E-1,-5.8185303E-1,-4.9836162E-1,-4.1753048E-1,-3.296355E-1,2.6275977E-1,2.9623938E-1,4.745518E-1,3.9858603E-1,6.1051065E-1,4.2012045E-1,4.572603E-1,6.017815E-1,4.567327E-1,5.590899E-1,5.963853E-1,8.3500195E-1,-2.3568076E-1,-1.9230236E-1,-1.671842E-1,-1.1958934E-1,-7.8790806E-2,1.0265188E-1,-1.2791354E-2,6.491296E-2,3.554996E-2,1.2535223E-1,1.2394498E-1,2.2209305E-1,7.434656E-2,2.6426813E-1,2.9452458E-1,3.8289055E-1],"split_indices":[15,16,2,21,1,0,3,2,16,17,17,17,17,17,17,0,0,0,0,30,30,16,14,27,14,10,22,0,0,0,0,0,0,0,0,0,0,0,0,0,0,0,0,0,0,0,0],"split_type":[0,0,0,0,0,0,0,0,0,0,0,0,0,0,0,0,0,0,0,0,0,0,0,0,0,0,0,0,0,0,0,0,0,0,0,0,0,0,0,0,0,0,0,0,0,0,0],"sum_hessian":[1.983E3,1.162E3,8.21E2,5.45E2,6.17E2,4.63E2,3.58E2,3.82E2,1.63E2,3.36E2,2.81E2,1.92E2,2.71E2,2.87E2,7.1E1,1.7E2,2.12E2,1.22E2,4.1E1,1.33E2,2.03E2,1.98E2,8.3E1,4.6E1,1.46E2,1.7E1,2.54E2,1.66E2,1.21E2,1.7E1,5.4E1,5.2E1,8.1E1,4E1,1.63E2,1.95E2,3E0,3E1,5.3E1,2.9E1,1.7E1,3.5E1,1.11E2,3E0,1.4E1,3.1E1,2.23E2],"tree_param":{"num_deleted":"0","num_feature":"31","num_nodes":"47","size_leaf_vector":"1"}},{"base_weights":[4.725217E-2,-2.8729273E1,4.0636517E1,-4.8868076E1,-1.0333451E1,2.7616325E1,5.618143E1,-5.4246666E1,-4.1434334E1,-1.5809177E1,-3.9852753E0,1.7022911E1,3.6361958E1,5.0067978E1,7.7200806E1,-5.78383E-1,-5.0107104E-1,-4.317416E-1,-3.3120427E-1,-2.0722143E1,-1.2585066E1,-7.3124094E0,3.7856026E0,8.286037E0,2.0485502E1,1.5934228E1,3.671381E1,4.598379E-1,5.682734E-1,6.0649794E-1,8.175511E-1,-2.3239402E-1,-1.8965217E-1,-1.6810042E-1,-1.15736336E-1,-7.7617794E-2,8.6606316E-2,-1.8967133E-2,6.809571E-2,4.021005E-2,1.4693753E-1,1.6538963E-1,2.590774E-1,8.4210396E-2,2.0640403E-1,3.8473633E-1,3.368149E-1],"categories":[],"categories_nodes":[],"categories_segments":[],"categories_sizes":[],"default_left":[0,0,0,0,0,0,0,0,0,0,0,0,0,0,0,0,0,0,0,0,0,0,0,0,0,0,0,0,0,0,0,0,0,0,0,0,0,0,0,0,0,0,0,0,0,0,0],"id":33,"left_children":[1,3,5,7,9,11,13,15,17,19,21,23,25,27,29,-1,-1,-1,-1,31,33,35,37,39,41,43,45,-1,-1,-1,-1,-1,-1,-1,-1,-1,-1,-1,-1,-1,-1,-1,-1,-1,-1,-1,-1],"loss_changes":[2.3593958E6,4.3739038E5,1.6805788E5,2.030275E4,2.1453984E4,4.1812906E4,4.5093625E4,1.919125E3,2.0560625E3,4.9980703E3,7.4738506E3,6.1529727E3,1.2119062E3,5.613625E3,1.3733438E3,0E0,0E0,0E0,0E0,1.3420312E2,